0.03408684544283366,-0.02981848997424101,0.01864878468681619,0.1063315528037046,-0.02022509509752766,-0.1044031011176393,0.04265108194211389,-0.04929992653462935,0.05793138561256123,-0.06046458005770031,-0.02529725859248971,-0.08325313989675992,0.01384513523165079,0.06369831637591536,-0.0667749847610975,-0.0107561207511065,0.0216794617631034,-0.01600471164581488,-0.0979206082809236,0.1101528991087531,-0.01576182738492582,-0.01127830735239839,0.08400539495648437,0.1087423095518684,0.0592677559341547,0.01504074724949561,-0.003505910214393282,0.06389564120081248,0.02207759787525318,0.08187715743165958,0.06306759092593583,-0.0907387054613091,0.01132318449308378,0.0559159229720623,0.0392900266222849,-0.0429910243659533,-0.09230153772491623,-0.04786630796954996,-0.04649052031186285,0.07711054622152369,0.005644252208587885,-0.05438824376458057,-0.01181500958260219,0.04246103734180781,-0.03110192751987413,0.1064607092645982,0.0642279702344114,-0.008608910224232671,-0.07598559663674317,-0.06179066512974524,0.02247969876867714,-0.05120365740938135,-0.09741657071131724,-0.08498463110009086,0.05160443240292759,0.09639212922118007,-0.1126054088138687,0.01207975213674631,-0.06049491007433879,-0.06065167664984403,0.06893907549870443,-0.08039405356691878,0.07027022380651243,0.06894096177581152,-0.003695518797738606,0.05899816874962677,0.06354894671711112,-0.006328668973867357,0.1126260159455764,0.1182155472173191,-0.08108595316238522,0.06854371498445572,-0.1093833947698962,0.1133590554367312,-0.06116924624185983,-0.03401932430998307,0.109507922003568,-0.110071380565395,-0.09407561961813353,-0.1010472718600697,0.05503052801155711,0.08594172711983597,-0.0077195750340113,-0.04150707679779377,0.1084672170539545,-0.1137445229746943,0.1097367168274486,-0.006409227086441607,-0.05918137923035888,-0.09459917756705158,-0.02456137361671078,0.06884278166311067,-0.1080806458098539,-0.08493186176993475,-0.03264469548969164,0.09823698066578129,-0.07958656086622509,-0.06451024149896169,0.1048736093752998,-0.09744468798007128,-0.06243421242714619,0.01427287402473826,-0.002540345565186578,-0.003192798184817561,0.01908761780052079,0.02185056339485275,0.05143210757556854,0.01201035272123982,0.01917909384750821,-0.03290446836707132,-0.04169115112429185,0.09062676881505335,-0.04131971782333774,0.06289891884895041,0.06365964453657438,0.02882007914443854,-0.009454263491567819,0.03728856925603047,0.09775107736742866,-0.07264640524862248,0.06982191974529131,0.1131187319834539,-0.05230408003291473,0.01655927796477621,0.01369215734673557,0.02048410193833677,-0.07064104744429507,-0.02475383204862534,-0.07079460253525197,0.04461950464102946,-0.06536053085463546,-0.09905939809127165,0.0261771986412942,0.05265636417880257,-0.0345818609821793,-0.0451378532699707,-0.1186756151814778,0.08419935872456746,0.04435875433975239,-0.02135287990066663,0.1172536124695291,-0.09294772297471184,0.06831116276737642,-0.03406969954753498,-0.08022303302718591,-0.05894172146000678,-0.09103607617808347,0.06238968060677536,0.09257805834463398,-0.0333514843682898,-0.1120101299400436,0.05550513227782156,0.02955395150618367,0.08802548761750989,-0.1078943673262972,-0.09293457126967737,-0.04243160635784118,0.07677035663003953,0.04756848653728663,-0.02884785500674276,0.04525662278533693,-0.0328640397073951,0.01078913776325774,-0.008841801771691735,-0.08293726844824079,-0.02982337249290186,0.06022219736258252,0.01165876408339275,0.01325739560109548,-0.06766880905616408,-0.04853977526499699,0.03938496306228975,-0.02963762281969511,0.08520827576530984,0.06287397786927479,-0.01237992505851637,-0.1021172770756969,-0.04785884276998764,-0.0008240659946888301,0.0192138955172251,-0.06178254143727333,-0.02240985852200299,0.04273684351048365,0.09251875164681869,0.03172391916768524,-0.04278075886153959,0.09183898440298516,-0.1199259591317943,0.1064859462101062,0.1050351153955434,0.02450550138773261,0.09690217709374183,0.08157174794627423,0.1045151788366322,0.1009101885127341,-0.036798821792018,0.05993996657316314,0.08391439403762554,0.1051332800949506,-0.05757418806051476,0.06353766991503668,0.02115116977068765,-0.07570235030696451,0.02211161686331559,0.08981288840953502,0.02102711627986453,0.08464389779129491,0.02898305765214507,0.1040110009980703,0.05850909151055467,0.005577540770953904,0.0620574916226653,-0.02600252648946071,-0.09158323054418369,0.06568095676731234,0.02313523303171305,0.08589703720691311,0.03938388423140687,-0.004038185707201172,-0.01471239385527832,-0.07327964660254624,-0.009094436862062585,-0.02234613173687221,-0.001022841259615354,0.0676759346735791,-0.01600233955767764,0.1103492633725707,0.08658668907812545,-0.1160011695533856,0.1065863551104161,0.01823079710711134,0.1005818152441502,0.01685498864876298,0.09960663241301485,-0.0244056148696635,-0.01694988875435666,-0.05073886343382897,-0.1005921797809439,0.09428853071916304,0.1113821223955749,0.02881752080773245,0.06091247824730833,-0.03755874481252064,-0.08575061118758072,0.05267520262545691,0.06864594524010642,-0.03759581733446632,-0.02246053436127826,0.02803740014228995,0.06396863405436778,-0.04163614200421949,0.06215605496283585,0.1131533045870243,-0.1062857581395489,0.02876744695072689,-0.08812405533343126,0.09802916382465399,0.04278660000663267,0.09606374441151502,-0.001781515647761328,-0.07462752340981164,-0.04983681644639336,-0.01028265494615582,-0.009181040971768903,-0.006029882370523362,-0.04236821434068917,-0.07233988597082494,0.011198442603682,-0.1127331180353435,-0.09942756608739571,0.04493456175072238,-0.03492919646484147,0.0828375043736832,0.1001140190209088,-0.08674019598670024,0.08887534093223037,-0.04603119174163076,-0.1171653191161068,-0.05046498823061997,0.100989500251137,0.005225831318441981,-0.04456626007081621,0.03406701980899621,0.0355304118786042,0.1014042426564088,-0.06270621715991655,0.08545102716101929,-0.0246852718168634,-0.06189174273477246,-0.02708501406389544,0.04569707224486169,-0.05654891459772736,-0.08205032714662455,-0.03076244796274114,-0.01895867048692192,0.05801216408058493,0.04306840897693207,-0.09787352093842179,0.03140345967804214,0.06697576410847395,0.01500398727050734,0.01357686929986457,0.09537079956391645,-0.07992997860572155,0.1035999528273902,0.06317373519907024,-0.1138702691495699,0.1131757527748035,0.02727924345467533,-0.05117131517822543,0.08289658585577908,-0.04608704301956019,-0.09470279334211253,0.1183843081216222,-0.09721466528775603,-0.03310024806561047,-0.07758636569793459,0.04210798046079142,0.01753049390411007,0.04795668023611216,-0.03660512617529342,-0.05657061569027962,0.07307216781983325,-0.002481580603700226,0.05986868815743437,-0.02288345372162683,0.1125366285907458,0.03646040138386439,-0.02970573738590239,0.08072322510781718,-0.005133055553966023,0.07232606086219429,0.02948860751160615,0.004490188803260353,-0.1057984765144555,-0.1123626124005987,0.08138635882444412,0.04540290495662849,0.03498781452031496,-0.04047148002942101,0.02516529978037241,-0.1122545183515633,0.0495630958573243,-0.09409016004212102,-0.02101508482519278,0.07606381353234262,-0.1114480893373439,-0.1073801620900666,0.05265846760615159,0.1160127206152302,-0.04335589518156326,-0.04235270347377186,0.09273620590466117,0.02279220355691675,-0.01832852038026352,0.10193567180164,-0.05302190816414115,0.03984038737318685,-0.1115906626563896,-0.05131300718350874,-0.09561841906090122,0.02944730002172244,-0.1192844774141667,-0.02390313626103484,-0.07547543634860099,0.09364007596408316,-0.01552161512945542,-0.09635558410189464,0.06965471081515182,0.1001085225068385,-0.08311245705195888,0.02773531551640218,-0.0002541005567772703,-0.108836243121847,0.1061748863948087,0.1045591303285452,0.09031445652079748,0.09687514207286552,-0.1162769237003939,0.09964332136412454,0.0408822196151529,0.0868102214184262,0.05281555728275092,0.04100093861511175,0.1093460598757245,0.09157682198649153,-0.07159206769538842,0.03712110883900191,-0.03277910339203437,-0.07665536052786576,0.05178418505932111,0.01315397403848909,-0.02647292432721866,-0.08933132072417375,0.07720239963085371,0.06664162432201459,0.1094608126026157,-0.05655054842895141,-0.02757550487173928,0.08104902216209586,-0.1155842790586919,
-0.08687557936561177,0.003363805397960593,-0.01789949529644741,0.1028244869686269,-0.1119215094596138,0.1026491275806403,0.01499817291321764,0.109287539530274,-0.1198876785547718,0.01776865062041502,-0.02845371648884737,0.1061435317796803,0.09345681154374041,-0.01542837894903575,0.08002861060989108,0.06219471997873899,0.0008434576719907327,0.03413570014156031,-0.05929237125557299,-0.08168624213919824,-0.06216284037375381,0.08011170573820975,-0.002169218343561832,0.02951807754894481,-0.08456712490261925,-0.02757991367098293,-0.06993446839271461,-0.079279985488935,0.04233764625072881,-0.07564980619674382,0.0586582602170907,-0.03602540976345663,0.06976832385570853,0.09851303000953796,-0.02778525274556554,0.09837567952554319,0.02815925224756874,0.009933702179818898,0.0880910373325505,-0.05357390979654487,0.01144132112890434,-0.005506402182799811,-0.1056531574409883,0.08572324614284729,0.07919988897718791,-0.01840920618303338,0.009261346789149916,-0.1119756342519508,-0.1178777789707002,0.1069947876751597,0.07106227243642499,0.005159260183226183,0.03704237324039558,0.07108119275203661,-0.08850319187625022,0.09270234147349313,0.04264140149334286,-0.04353698455060868,-0.05307369394915835,-0.04555251681098506,0.09895700192729173,-0.08805714661986642,-0.06087992262492684,-0.104224519944792,-0.01398204288511344,-0.0516253379188721,-0.1162082545515127,0.1154669337771685,-0.05608118514454884,-0.02644172604353323,-0.04524727526081079,0.08207483381776096,0.06629633275142466,0.007098188418019041,-0.09496978639879897,0.01355773756405393,0.04833893238616641,-0.01315687642781467,0.08654040950854799,-0.04324356639281733,0.03871889706982379,-0.07620936449395094,0.1180216316973249,-0.001585678146611327,0.09294853513591234,0.004156275710442844,0.05685806829824466,0.1000260958140168,-0.03211102237124212,0.09080097574970086,0.1093887852717795,-0.0432959724784077,-0.05811812772012937,0.08240985646632545,0.02939803070776176,-0.09485137067935939,-0.05943147966550626,-0.08349282039024239,0.09716656692539957,-0.07780574346372467,-0.1106451652493575,0.03043820383079707,-0.01409043870826321,0.01509370926614526,0.06043313922580129,-0.09669122904639205,0.06514202939019353,-0.02235328203498564,0.01086978340588873,-0.1002818759688754,0.01566214402409524,-0.05270878615788235,-0.071089703960626,-0.1045863517143969,0.08618318503594094,-0.0684622084650105,0.01128980569239108,0.07043337694662882,-0.07275610671261132,0.1031407220398991,0.09267542593626044,0.0505950316467082,0.08713144494568678,0.05109454040251557,0.01610343560054914,0.0007804382182304698,0.008767046480935875,0.007292322802316537,0.02404409463300392,0.06458367994668887,-0.1026194632952154,-0.03728511620453953,0.02989909730095222,-0.03297822601660375,-0.01343705047754661,0.0144080163896608,0.06895016211294094,0.0452599302323371,0.1141665914238041,0.08341002353451474,0.1158096742156592,0.08998941054404397,0.01638545325381746,-0.1130028180514896,0.01076438337722951,-0.04851573682380908,0.002278946778745322,0.06666147118063154,-0.0662742112675207,0.03645556121652158,0.08619380258631842,-0.08284473527339067,-0.06514765741013769,-0.01490977233548436,-0.03780126871807282,-0.05443864003396441,0.08261114428430411,-0.03714823995860618,-0.1088234922393921,-0.009439504004636376,-0.02002581001643784,0.02187785266584932,-0.06888793153890824,0.06283846762199569,0.01882975691728181,0.02843970799725712,-0.06829427186337798,-0.07428160149186809,0.06838467650274246,-0.08872284717508105,0.05848287806120148,0.06785473910933082,-0.005989032219530135,-0.0227380812328473,0.05351944638844591,-0.1177053261190569,0.07524281396975246,0.08081591977420316,-0.1098674429290884,-0.02064637801451091,-0.1025363351619586,0.09704664933210624,-0.0936936593296919,0.06585469579761252,-0.04916235403011893,-0.06080215810129013,-0.06681277843501568,-0.06261417620591946,-0.07441440656816291,-0.06854135830889546,-0.01637907399861468,0.01844759966016785,-0.1180387839866083,-0.1050359097071373,0.03947686019687771,-0.03325893264651927,-0.08285329097481028,0.09121575103808291,-0.06231945804761366,-0.05505606343489014,-0.08435467368789154,-0.001019218142570652,-0.04290444977453181,-0.0319867836111894,0.06470364024200739,0.0602670974167191,0.005061201476307758,0.07517851220544261,-0.03809481121328714,0.1079490752253811,0.07839913801502818,-0.1112266478031089,-0.09327561952145828,-0.09439872106673797,0.0001048178587998438,0.1107853643683404,0.1113858965349596,-0.009957175291845158,-0.07924941029359023,0.06134783803480295,0.00863012254471357,0.06371340872236125,0.09341540512903246,0.002179679765330067,0.06519318371744284,-0.01189330729310593,-0.01786499840437925,0.1065300951900364,-0.03001616077538442,0.07081984552421522,-0.08542824607187949,0.1125015279329321,0.1113306090901354,-0.02968434267797719,-0.01628153563658491,-0.1086301388731207,-0.07069221832050776,-0.05495718926509996,-0.1086942489485004,0.01231803840189066,0.03177004451915932,-0.0806652184980564,0.09964702601174394,-0.1051270992304831,-0.006261987332394081,0.09786526472772564,-0.02411503796412735,0.08219797730099437,-0.07468969895418212,-0.07528132336456743,-0.05064582038496837,0.005457251971709098,0.08316608133252401,-3.171406471220994e-05,0.0255886401563318,0.02924687791204014,-0.08387470361317477,0.004041056583421479,0.1013205290849823,-0.1025014505030853,0.04781843825288618,0.03029793173721892,0.1073617072670803,0.001528978973441286,0.0444162800283007,0.02052975007882593,0.02209595285453694,0.03613428162443488,-0.1153578460260686,-0.05312428352177587,0.0961094045377737,-0.08626251223403536,-0.0512685686318898,0.08586069799725682,0.0728054967760223,0.02499087877151199,0.08530919607230752,0.07382078525208094,0.006789804734058102,0.0570551127999788,0.08367264781458064,0.1032182973435085,-0.01706203127644078,-0.01664658495782764,0.06961289786546621,-0.1099278951650523,-0.06978964440750887,0.08542663760225805,0.07725280268423862,0.115782154142214,0.1107725014499476,0.09206615612133973,0.05624946640345072,0.07990326769349057,0.04250305280997704,-0.04020788052395138,-0.0933074978724977,0.08194859330789964,-0.08937204645542388,-0.06840894791142735,0.07552606101572826,-0.1011753584884979,-0.1189854599885653,0.07430003157710716,-0.1182273750322207,0.08077251177005476,-0.02821925471218815,0.0003536128859974175,-0.08441707028705356,0.02810963116020812,0.0374097579721063,-0.09489971935377194,0.03231656243413744,-0.007108004191135067,0.01525880996972329,0.08735380862180825,0.1119504616755777,0.02925860701160288,-0.09096028196549752,0.05122201333250787,-0.08558933944259603,0.04910767035724911,0.05905718784398212,0.07835323576935488,0.08827744676492566,-0.04749582296924096,-0.09231179815868293,-0.06318563788767931,-0.1184280693564899,-0.04033415716965061,-0.1010502703862777,-0.01713047904280636,0.03798123500834491,0.03581901604226254,0.03437302764650302,-0.08416795377902486,-0.03633744723787077,0.06125978114530264,-0.005840584281423727,-0.05814014284210071,0.004972289179270326,-0.05713110787900588,-0.07745863619862148,0.022129732409359,-0.02088404461981305,-0.06827086139869327,-0.0004701583678599214,0.07392363767571758,0.02245125878317691,-0.03899510628166515,0.0417416329970369,0.003842437131612364,0.1021225629076891,-0.1017846818531341,0.000999212308999145,0.09578575956431881,0.09198528357328795,0.03800124684564204,-0.1135417373860787,0.107635175512655,-0.1082318355735831,0.04770192804165865,0.08550475280446462,0.08005844367808151,-0.05670524223366236,0.002678916007286147,-0.07051020050106951,0.01938014189241202,-0.1163969677670432,-0.03522862986627598,-0.08518182697763423,0.08707635789677884,0.103507627818399,0.04316609057758342,0.05012677673498822,0.08125773710160245,0.03166253170895608,0.09923749900706455,0.05909315091257777,-0.06046711475589511,-0.05316282490599666,-0.02714257772059962,-0.05170145929066443,0.1010357620390953,-0.1172266556369868,0.06261865057181742,-0.03156315747579741,-0.04439245622074153,-0.05982107455436224,-0.04621934326891029,0.09769985316477509,0.07822518383257285,0.05113167255637369,0.0479946518317505,0.007610159379533299,-0.08946824652939669,0.0551726469686791,-0.1088740976685033,-0.04373866551719227,-0.04375264646763773,0.1050062766843062,
0.02459554149135787,0.0695775083603922,-0.09026333424197411,-0.0596217585092354,0.1030745442540479,0.06163325270255191,0.00445689821918481,-0.07809655652425929,-0.05481362064538552,-0.05697666740967984,-0.005097235432984168,-0.06436261561980783,-0.08457194420825634,0.07745791289250462,-0.1161674879742245,-0.07371423847742783,-0.1040826267898498,0.104114539246642,-0.09791401581366674,-0.07773445185074902,-0.0009845175358316194,0.06944283870693441,-0.0234369374871273,0.02717713697758845,0.03727306701796579,-0.0639187493858462,0.03995403458309182,0.05766891972994145,0.03147838544918885,0.1076110400404075,-0.05118310563188978,-0.08889656018768848,-0.1018490115980273,-0.07937299458694883,-0.02738837469353882,0.08479045196533838,-0.06119857820860161,0.02048607545494821,0.08765568699092161,0.07562247763738889,-0.04553184326760473,-0.02878434068720302,0.03507541523466945,0.09446185101363538,0.03165044121247843,-0.04200777965376669,-0.1108757262699781,0.1109842717592996,0.07633705923519507,-0.04961785195637232,-0.005161089935389607,-0.07363855265066088,-0.04014301459862965,0.04249521115903851,0.1136065358469354,0.01385289878998225,0.0948841940407768,-0.09883011947291434,-0.03869449836537915,-0.03989270587800409,0.01252564917924112,0.0339963388964083,-0.07543806771455484,-0.1035287630096053,0.0941490994181082,-0.1193553169161452,-0.03822452735185367,0.09860595953865775,-0.03909720828635518,-0.03242211708639048,0.07263843271277809,-0.06788032522790327,0.006239890877773102,-0.0662724431223408,0.030146491645755,0.09591099237226128,0.05930786544119629,0.02923713261463148,0.03620032340377047,0.05009143416938083,0.04018733033322874,-0.02913551464861332,-0.04972349323464699,-0.04313810632753556,-0.001259166652776117,0.03627915448598415,0.1167133964334805,0.002536071602801962,-0.06810171796371073,-0.01281136579270307,0.04694734836855233,0.05906874394388514,0.02120498683943867,-0.09655687607153832,0.08455218586930965,-0.08817748850135276,-0.02549994961301789,-0.000556962713970946,0.05529192264272248,0.04704510829887878,-0.01501564703515423,-0.07167331763510255,0.1101620392386999,0.03841995759243075,0.04009627854578274,-0.001915025765729397,-0.1016015916759518,-0.1181908400533288,-0.1056432150654371,0.08179975072958001,0.0131695483882828,-0.07450542157242751,-0.01728364151882984,0.0756205318046555,0.06097201674198743,0.09990869510488168,0.09414330933778572,-0.1090758436544031,-0.06095912085592085,-0.1191410729401324,-0.06986497736566341,-0.0955228384808167,-0.05623964611942545,-0.01621727800984418,-0.1092257140940045,-0.0006138476869706477,0.07942764043758513,0.07333684567721321,0.1091925894972229,0.06097446041500135,-0.1114466084143439,-0.07895576842610434,0.0801676808059695,-0.06271518905786505,0.004815525130906384,-0.09858906222708486,-0.0944157789827689,-0.06692151743421505,-0.07174103130452975,0.07152905217869826,0.02902315126288238,0.1179979947723324,0.06310368772290337,-0.1099610574938559,-0.007120891554105696,0.00840668763572891,-0.07099214241852611,0.1110768456084826,-0.07048075818300029,0.08530949954210884,0.09539689210892041,-0.01637607436619715,-0.1149136944049746,0.03187804523284693,0.01669301412644592,0.01603449784072516,-0.09009180362731498,0.04388303235212987,0.07820927219172294,-0.03826298748438975,-0.06637988318320329,-0.1145917806154736,-0.06906527532220141,-0.06910851637033749,0.05173908788224219,-0.04676956246669754,-0.1018734741840968,-0.06497696509325093,0.1119747129476637,0.09558237753429383,0.07385759876213394,-0.07829752096176584,-0.1100377000107816,0.02466332482260175,-0.02034629297096871,-0.1154797214594118,0.06698316539124954,0.04369451770378552,0.0616607307774773,0.05387731991228473,-0.02682925202027217,0.02121706455740693,-0.08630242897419566,-0.04999619617514778,-0.01137516863074969,-0.0896803763025355,0.01806654782721379,0.1196058604048535,0.001523357900357472,0.01081168695453344,-0.08973012377977467,-0.01251067172342135,0.04219649919517046,-0.02120462610036017,0.0565342385314172,-0.1092210532803357,-0.03977183587060547,-0.0002087147477949081,0.02377171930497229,0.1079861836108491,0.09177299092648103,-0.05484747306386591,-0.05305414771881725,0.0133583987059499,0.1049140512826437,0.0255529522489992,-0.0533406150034159,0.08929571959268312,-0.0703340274854421,0.05517752382206079,-0.102532694540051,-0.03846053190033025,-0.06446985951712642,0.09178463501858206,-0.01563946319050229,0.01537733497351276,-0.05760511036872602,0.06335812439965174,-0.01533108676435549,0.08822733257489163,-0.06485250723222501,0.04314122793212113,-0.04653955021939966,-0.06448504951985436,0.09006559112245222,-0.06365884858509346,-0.01883099712197576,-0.04324481322125288,0.09379229876360187,0.04229421407031228,-0.005223846744677241,-0.003617556544272954,-0.1193958836398526,-0.05050438146667879,-0.009802009833837194,-0.08991413007839288,0.02424302662505043,0.03096089681424344,-0.01373787896113234,-0.1190761831711541,-0.04937400667516474,-0.05706316870174147,0.08980570722415979,-0.05104872457001892,-0.06150946332380504,-0.01818386978121642,0.004357298927139125,0.08912227963335664,0.005635119332868699,-0.0009161009931459158,0.0461628997270826,0.07758213117271986,-0.1089705903522776,-0.07769184846361124,0.006423306340707424,0.07939632241232364,-0.0458223038672028,0.06485223557249553,0.01379970465735031,0.02816377987210902,0.09065755686618088,-0.0406949003700767,-0.04919211556334852,0.03259387190416127,0.01791030252170822,-0.08853331227021535,0.07013177182595998,-0.1059573799238007,-0.1113682913416557,-0.01030339953589945,0.07901390104398837,0.1193440921942473,0.08279765748680171,0.0678634416746427,-0.09899613220348143,-0.02128457769615655,0.002996801739823349,-0.06892432687194949,0.004365411133929659,0.117592673643601,-0.1162478068610097,0.04093437213016554,-0.1060652862509016,-0.005363292017395355,-0.0535622447693086,-0.03295342819213808,0.05328091746681698,0.1178233004140638,0.1081427498011215,0.07914528506228694,-0.03228244892065137,0.009123424145447756,0.1140276685663235,0.0675230295894155,-0.01440473313248797,0.1160659180942993,0.0139537480125298,-0.05030091387448905,0.09718926716272946,0.03774942588018684,0.07788623614316489,-0.08723125500420284,0.03135829780779884,-0.112201559882845,0.09178688080404329,-0.007031305739574945,-0.009759413934487746,0.06200359257536994,0.06186768121726754,0.01221018302688245,0.06390739981924876,-0.03346798823514366,-0.01716493644154102,0.1021772800976994,-0.05423326177748602,-0.0787536282043334,0.01650431501325833,0.1049524770228451,-0.05852114834831853,0.09646805770902639,0.0914448441441823,0.09672243933830466,-0.09538507675409717,-0.02868550757624315,0.03119182592454242,0.06035681399306683,-0.06840785546418587,0.009430073477551454,-0.09956272127224441,0.05154538830423261,-0.02562192320737809,0.0543277418469745,-0.1111573110141568,-0.06715746122465002,-0.06622553893019376,-0.04442303382281336,-0.02041746653199598,0.02636326640954548,0.02110949594941958,-0.1099261638498357,-0.01652512751846021,-0.03854990949259485,-0.06638836312887784,0.03298196526684088,0.08810321186233763,-0.1015663738223877,0.04971231422705127,0.07535946984556532,0.09788446320440514,-0.01770306284562199,0.05134597081288431,-0.03540362957936691,0.05625576566412735,-0.01181152817923972,0.07254996000676875,-0.03799800110530675,0.07287399456639679,0.04725120757811069,0.03545130456652734,0.03009299682648492,0.05756402519634729,-0.008939774628030556,0.1116188057991251,0.04829377433812429,-0.0112466253031642,-0.1051438404299418,-0.05496657244825247,0.01666506030684328,-0.1010291536897016,0.1068200711008482,0.1173731133714656,-0.1019211298172638,-0.06907906703823666,0.1124587584690303,0.06162606241315821,-0.05652323335309721,0.04184843726117057,0.1161370366183057,0.05990464790437308,0.08868111741589088,-0.01282598464235804,0.06966285287064003,-0.05842183426696213,-0.02093842609212328,-0.09776873426326307,-0.1171338593335074,-0.0245576967648297,0.01262763817917179,0.02204072876479093,-0.08970893974506085,-0.08651883153836232,0.02222017716605995,-0.0003330724978566069,-0.06705627943267575,0.07144604676420194,-0.04098349469683021,-0.0622885388801668,-0.08761387683887166,0.05165025128188855,-0.03710891325903357,-0.06258834309427307,
0.0933431690679429,-0.0544962148899743,0.1063955234211796,0.0325960767110843,0.09316470096340243,0.06090793702037806,0.1018890291360507,-0.08738119976996778,0.007277367836150794,-0.05170515762510305,0.0448647714809918,-0.09362458654556094,0.03859675131562393,-0.01828434224173141,-0.1025679411549778,-0.004885106789025109,0.1082958409217977,0.05602127323402453,-0.07991748018689915,-0.09114057568956851,-0.05023050322981572,0.06991905878452315,-0.08243094444592289,0.06636411372856169,-0.009346706115944903,-0.1042926099911239,0.04702777390167273,-0.04762079973904285,0.1102081919296617,-0.08896705495458793,0.03843729786568989,-0.09486700890275179,-0.07576544966045129,0.0983955843570726,0.0736191215599295,-0.09876233685358883,0.1155877966376515,-0.0175193811205946,-0.01048767516340536,-0.05789744555365849,-0.03533627313172956,-0.02135772281039451,0.08564205401509059,-0.02621878982428391,-0.0159246300126919,-0.1114982663054573,-0.05130469602727682,-0.04080972021836039,-0.05202281728531068,0.07904959688041185,-0.02507303286407248,0.04093060222391259,0.04820283143729759,0.01829264727498228,0.03013779449235376,-0.03525349662218293,0.01707313175003819,0.000278103747030467,0.02527792289981187,-0.108035029645149,0.1182585842003978,0.1183443215327973,-0.09143780726583385,-0.0187850648994231,0.01132735388576722,0.03429260637525725,0.04889336991629742,0.0968027501817354,-0.10716377909781,-0.003924091447439437,-0.09173612034407272,-0.05704349067463954,-0.009327998240438728,-0.07638117610842365,0.09357333623896522,-0.100788435388468,0.04218071513675792,0.05917968573154392,0.04093968505032491,-0.0518520406539658,-0.07865884583558735,-0.119154030396882,-0.08795259325276489,-0.04455773490087564,-0.04619880422184498,-0.05244589432428148,-0.02207329107969697,-0.1106749709734222,-0.06362706613191324,-0.1028767219053307,-0.04718914511854619,-0.08173996120830046,0.1087853304706382,-0.09264850548681493,-0.01963362506427878,-0.08352211867164371,0.005572565786719302,-0.07213955619596488,-0.1159475241346553,0.1087221642183484,-0.02180703078374958,0.01205682574824168,0.07652733716165599,-0.1096796025277376,-0.1028518044611594,0.05438683312383735,0.02868340639585518,0.1097218914564329,0.1172147490063187,0.02069973437389858,0.03315239286153684,0.0145421290439802,0.054731093196831,0.05858575889977449,-0.0736545346020438,-0.05628086940937997,-0.1188319853686165,0.02756767509967817,0.0751526400099555,-0.01642243662889238,0.07172379496509268,0.0002506981950501364,0.04350842279035927,0.05937667326605092,-0.0008642587005550095,0.005712404082274636,0.0451136548229257,-0.02225043312382569,0.09085821077612263,0.03493517888052819,-0.1042651913114993,0.04614824552596708,0.000215253812789612,-0.1111473626385518,-0.06410426523787216,0.09948231943520805,0.06583262813679391,0.06907266612129309,-0.05532248294052619,0.05654433625272251,-0.03899628006496256,-0.008857008760365132,0.002955804372464149,0.00604520960159316,-0.08413794491384394,0.007807172939153922,0.1046256780848203,0.05275141901854671,0.049280428357801,0.04930238232392523,-0.09351698144167167,-0.1020041197249392,-0.07418528964819054,-0.1033643382215202,-0.0807697836422156,-0.007322849058473788,0.06053379459056313,-0.04354011028504756,0.1173854331391748,0.005187103781026103,-0.005198439457033494,-0.04821240590757564,0.0589317681425624,-0.07996684072963386,0.1101827950764218,0.1194390755192441,-0.0166184151355732,-0.01100896242452383,-0.08750726644711912,-0.03630752050678861,0.01712811781230564,-0.08214178514675138,-0.09675963387854987,-0.1039671093843668,0.104099115194321,-0.05735736061706033,0.05436109518688834,-0.1090742250601046,-0.1108695427776101,0.02678340068853619,0.1182965951246242,-0.09758713716197191,-0.07190869102541983,-0.0312322333227935,0.09957668304188316,0.07903398922440877,0.0866260671604546,-0.06506644844267359,0.004074001111792652,-0.07341710216008815,0.06270297260383909,-0.09868299606946622,-0.09617029565925256,-0.05504509550179831,0.0234530612982525,-0.08743395618557161,0.05363863867490884,-0.08666316554910541,0.1180874146781678,0.07053863403135163,0.09122546593680017,0.08431653427022662,0.1190420829311522,0.03314671509123793,0.02663614673551168,0.06907766474001659,-0.07129007443222624,0.01183455010319936,0.07348474457551965,-0.05707874330998519,-0.07304836125643191,0.02843311489048736,-0.02241170189685876,0.1057825782440536,-0.03338445622903184,0.03781349966763015,-0.005258260465735257,0.01117742189595081,-0.1057069085364997,0.0152118618399503,0.03069696475546052,0.07205781931354593,0.1043922971676743,0.090665871285806,0.04396502971775576,-0.1021324729079008,0.1064601918264155,-0.05453156086701405,0.02364871830687598,0.07180318117538137,-0.07941023661385418,-0.04769803793094883,0.00469191994302369,-0.1165688188945229,0.05342711180139298,-0.1090215766958888,0.08964657416246857,-0.02407589108767785,0.07961968358066496,-0.1098279608713131,-0.02454752027909039,0.0454226753005981,-0.03693950339848633,-0.09919113527440755,0.01484615592172417,0.005897386247906394,0.002792367175513372,0.01261959084224434,0.08070494259866906,-0.09730067096114411,-0.0192405028483589,0.09697704789888001,0.01506636766326624,0.1134541080794116,0.01888945665743405,0.1165565395214764,-0.1013825471513965,-0.116317679243258,0.1029502509948864,0.07035935437751886,0.09031392321275683,-0.08007320121439609,0.05024824241422288,0.09662638422612566,0.02700479473599307,-0.07009431428990995,0.04849991307798016,0.08677526606312577,0.07412618522013356,-0.03833079703192423,0.00845090529695397,-0.00569499234819075,0.04540929490175222,-0.04231836296182444,-0.01264387774261337,0.00647787196929428,-0.0826105380951173,0.09181776685587073,0.08560117676734438,-0.1079387709925801,-0.03546702352499709,0.08755268451043835,0.08858487584272792,0.02160617168770812,-0.01418515855511281,0.1160640464248535,-0.008408616326994287,0.02350909902827358,-0.06036439002360831,0.08477132091005221,-0.001831843513493095,0.08965122551331214,-0.09875825936631727,0.06939528284678914,-0.05995329682572149,-0.02614002750933954,0.05380319254682078,0.09985966758459272,0.08636915719408281,-0.06224388913724396,0.0319549613962764,-0.07731318684131466,0.04903240310464443,0.1023712534157875,0.01557177476605523,0.06608540516111533,-0.09029499157755674,0.05226337059688718,-0.07783320720174192,-0.03912484025394274,-0.1122047591415827,0.07062303247425422,0.01676361538186455,-0.03630515135053175,0.03362858733173651,0.01914150100123169,0.07257747878283013,-0.08197455934978945,0.03870155760069791,-0.09423467832191484,-0.00654502086083332,-0.01130282894153194,0.04843217183379331,-0.09224369237223579,-0.08542582902023618,0.03642252654893327,-0.07307849307984854,0.05508954968113813,-0.01794634876920988,-0.1194269273765046,-0.01228519199087981,0.06436752402099805,-0.03145795385272823,-0.1129756050048367,-0.07842591154633424,-0.0784083661936722,-0.07295761743066531,0.08788876720694813,-0.1125446112775931,-0.04547733085426621,0.06446082137381312,0.07983911374962452,0.09233548526348814,0.1109598869135051,-0.06087784879505669,-0.1083343132104602,-0.05807583806169189,-0.04475563766345679,0.03122722775236078,-0.09622612655767195,-0.08785863381999959,-0.07084079775037119,0.1118130222271191,0.08760756502957417,-0.0998968628087791,0.03015278646028291,0.09152936311184118,0.09588429737177415,0.08797171515622226,-0.1103443543969811,0.08836755561708609,-0.09669917160452529,0.09647675099294042,0.006974403031979631,0.1040167443774111,-0.01660109769779394,-0.08576600304944049,-0.008766765591091269,-0.01607785387021356,0.06474614204517717,-0.009988554686610113,0.09058100063398747,-0.02199396765985379,0.1093589278664643,-0.05449641932239058,0.004536441697734789,0.0515669284645266,0.09006597970150068,0.04880090326356201,0.06546374608199407,-0.08085561021256885,0.02679690091229489,-0.08399059080325588,-0.08465506692501977,0.09136256863922521,-0.07736905193317491,0.1078017598042751,-0.02479674141593846,0.08557551273667835,0.03079478011614908,0.05037383941192961,-0.01287719002927279,0.1197874242505457,-0.02167888728453894,0.009949080706950081,-0.1133802627867924,0.001025823699463385,0.08206431824065918,0.0533382685716953,0.04990604209260951,0.08551206863851177,
-0.006361653075621726,-0.08874352573262033,0.1136677775950831,-0.1142480853975297,-0.02079347177108153,-0.04730276892366785,0.07446166042486047,0.008536025592292051,0.08719177349075519,0.02100438047449213,0.05479589001555363,-0.05507788601994006,0.1072957531486245,-0.002605150738562517,0.02317065066359469,0.09559215259366202,0.02160859189434597,0.05507006032227876,0.03484423048909224,0.005608056403865358,-0.0340793841140182,0.01422057754152636,-0.08882378124299227,0.00484257710669557,-0.04087767978133404,-0.01251244800999209,-0.01689771902712971,0.1170669746229387,0.01568354519875809,-0.01859406039654043,-0.01908624886485989,-0.09360532800489482,-0.06601904338460722,-0.06919537807447954,0.08010420554884209,0.1075745705369104,-0.1095163301890308,-0.05658018344418575,-0.07398559766312258,-0.0770932626458827,0.109041548110457,0.07523192222702194,-0.02671300371266962,-0.01726210920694929,0.06496979670718367,0.02618415559725393,0.0537729972548264,0.04069010361050485,-0.1171095212282584,0.03004665633662346,0.06758467590652636,-0.01178865254653445,0.02547066681269239,0.03496930625786601,-0.0289116610711104,0.02840354125963759,-0.1112575479738398,-0.07101013273380319,0.0775124575428523,0.0318351855482244,-0.0676609675846946,-0.09713733966783562,0.017962504423362,0.003859065577991053,0.05866002346626148,0.008294813125035494,0.04735884948832758,0.005175707391435608,0.0747652214221971,0.06148165586623475,0.1150777299370416,-0.06515119397563174,0.0864034774642668,-0.1180247348224774,-0.09965896510223714,-0.08923120905403895,0.08089867722713326,0.008631611801727584,-0.0107479954112575,0.003512647623388931,0.06936845317015855,0.1083270103049572,0.004823316368355562,0.1025731849120531,-0.01209997308523186,-0.073764668211104,0.09094635596295667,-0.1184163161944403,-0.009151417867045084,0.06964989068016525,0.04848760652080383,0.05070327919528078,-0.1094341622922063,0.09203066696248777,0.07204916087143121,0.09978367406906169,-0.05136658360197385,-0.07353891195791862,-0.1041398554880317,0.06183765510607325,0.0795258550641085,0.04626870734939151,-0.02625593744770839,0.112589350040779,0.01625012903826345,0.03187369745785426,-0.06323487352215308,-0.03637190848155648,-0.05617103459794477,0.1100447042079112,-0.006873598375239265,0.00432049956810579,-0.009896474928147311,-0.01530960457714124,-0.05658460805757258,0.04080434082404219,-0.0124250159976316,0.1035817031805001,-0.1024754760730807,0.09868460859652978,0.0833792522666558,-0.1156308898042905,0.1184772019578106,0.1193985579394808,0.0111493247815046,0.009748794294844154,-0.08260114932758689,0.03085354390361814,-0.08866381961702115,0.07419811393890322,-0.04149418652178749,0.1172903722018744,0.06397097747405139,0.05944170047544223,-0.08569383912347142,0.07463601070977172,0.0306493102737817,-0.05023700805236518,-0.08506748058862204,0.115102632734819,-0.07626991740357437,-0.02949594151054591,-0.009065956760799368,-0.05159692995314133,-0.06470789116424269,-0.00909232433742993,-0.0003614252066281298,0.02462067772875248,0.05116078702273533,0.08270114464937137,0.006243990071015004,0.001944586985283284,-0.07727537306504767,0.09313759560578158,0.01779221496001102,-0.01293039212934506,0.08782029015567377,-0.1169629535433759,-0.1127849875708548,0.108415536255916,-0.1054299122790152,-0.09048860400849697,-0.0984005675215603,-0.04687482663833954,-0.07472143293180755,0.01918407244112214,0.01735022914250575,-0.06169230584727146,-0.1162590508532665,-0.118729256029229,-0.07871247082622686,0.01363936108477556,-0.1195476543131952,0.06479137190800158,0.09340351181059489,-0.08600592931684709,0.1180565955170781,-0.1159824780717121,-0.005026250350328026,0.1089488376357834,-0.1118447682993795,-0.05308033861812468,0.02607166589564211,0.06831223395929092,-0.03231178538323896,-0.05228505120204348,0.08314261445660476,0.04576774739936657,-0.008104298598031343,-0.04434067341770544,-0.0801500561472506,0.05495156478637236,0.112745396140386,0.007266733542963755,0.05265962277941855,-0.07368518862293706,0.03219529539003316,-0.01437889248060428,-0.05364681310477716,0.02707578549803399,-0.03173445784126969,0.01335833050388541,-0.007082146408597959,0.02094218323835836,0.09591143146412792,0.03563998881208527,-0.09962423066820901,-0.007418437663229402,-0.07581494365904777,-0.0876088107135142,-0.04214055217546896,0.07801826737736442,0.08174889682761585,-0.09440922334457602,-0.09099796706524302,-0.002823625850140052,-0.08688280435055136,-0.005695157911701651,0.003767006259257938,0.005211880593205126,0.1185125612418613,-0.08333693661011174,-0.004581077943015904,0.07314304155064144,-0.08444513135028325,-0.1081877507516306,-0.1085142179353349,-0.07025741228787988,-0.1154062582811041,-0.0893878712524927,-0.06667509479141837,-0.06285703713236074,0.1045551119929777,0.1170609891342811,0.08210700922992725,-0.0183228691261302,0.03531804295679328,-0.05941954462372118,0.05664093133868442,-0.01467338993127783,0.0532256472139217,-0.04397867152251243,0.101813167518845,-0.1071709548839295,-0.04074052052059955,0.06365547800218901,-0.06564065947371439,0.03155300413215403,-0.02292269493302511,-0.05063423245837614,0.07445969109020273,0.055468459226795,-0.01666873016297948,-0.007173093651147322,0.08469448946272881,-0.05814263807724537,-0.07659075944438956,0.09281433356293747,0.01789327466264401,0.08494455084291222,-0.01020319975925511,0.06124194755059661,-0.04446488295803633,0.03434537961501299,-0.02325897226055332,0.1173128066411382,0.03779835924851746,0.1116810261561405,-0.05142930553608084,-0.09262184242984935,0.02599274781651142,0.04368430263397699,-0.03375336182700202,-0.08633968253816574,0.08150538285368103,0.1061277309558271,-0.07710401341637374,0.02601586503106107,0.04240343701238561,0.05841535873964179,-0.05553954173271314,0.06942365965662384,-0.001055842445820299,-0.1052158611632663,-0.06279520652865198,0.02753243589157409,0.02294912689356474,-0.05035275509851551,-0.07561425493883575,-0.05735033770811075,0.02966121947326397,-0.08160853453287675,0.08188266503160591,0.0606518722541935,-0.01735637484996512,-0.05293068756928594,0.01471125338499135,0.01382079652534085,0.1123575472994277,-0.03804212456425775,0.07771707929417118,-0.07567444275480892,0.01994360792653774,-0.1117811706563472,-0.06138900125495385,0.02203051111505319,-0.05856752243371997,-0.08428435339200067,-0.1078366559296868,0.1071183567473828,0.06110519747451659,0.08224025655070813,0.05270661326790327,0.05850646493472089,0.03911580397310635,-0.08039456175990048,-0.1093184521239863,-0.07577395900606045,0.03382731202438699,-0.08069540046412196,0.07631123429212541,0.01880231636186766,0.09486647481884533,-0.1179806135745101,-0.107331632036994,0.1075192332058129,0.09535917284192366,0.0008368688732118684,-0.04392526941392648,-0.0009467663104090196,0.0934716619985741,0.007075290143758822,-0.08615492188380763,0.0585201857169414,-0.01148600981189507,-0.05416510972786513,0.09728918135791756,-0.02035508713661678,0.06322427267701911,-0.106594816309749,0.113097609232303,0.04520965591055753,0.01904308139217406,-0.03327841081838301,-0.1198870481781774,0.03670717711230995,0.06709846332118485,-0.0005195946967975762,0.05452104201635249,-0.02100726091550356,0.04446741709774935,-0.01232908888619824,-0.1123196232347047,0.06652125179180832,-0.08430261586659096,0.100929517632419,0.09570064248107799,0.05815804479359318,0.1198171767674933,0.06793489302895928,-0.01162679200997201,-0.08047291744142059,0.03486654914036258,0.05757673124742141,-0.1052485999051581,-0.06646321263303143,0.0399864992808121,-0.01949189110983282,-0.03800480802681254,0.08526670529496203,0.06215802286048419,0.002464151286740351,0.09614188998117762,0.1185886629621886,0.0193797142456662,-0.0238493015918475,0.05740348640982454,0.0414958010962849,0.06819279710050796,-0.05450949122548518,0.08528924666256693,0.04607860031479633,-0.09032108280665369,-0.01858535283332069,0.0550745093570372,0.01836132472664698,0.1003785526526757,-0.04919159935559096,0.09722918417928506,-0.05876952788070634,-0.067116718729782,0.02543420547288278,0.01222875149914185,-0.01076228054750404,-0.05115199877357837,-0.01294162423617827,-0.1189962383918073,0.1042048861224714,0.04679175599926641,0.01289278257381918,-0.0524943864995768,
0.01526498311429669,-0.05981115459326336,-0.03012607318241163,0.06276436677328026,0.1000400269636493,0.09027353610124556,0.08855778130779735,-0.02254937924859104,0.07505316526991621,-0.1187464449631449,0.02329066342200653,0.0770220674438096,-0.01149398840365443,-0.0567632699252525,0.1075746400024875,0.1145836784818329,0.0309920382246732,0.003713308758745371,0.0300199284833976,0.02700742285583987,-0.08265068114333379,0.1180828708974868,-0.01282225212072317,0.002853924589730633,0.04976407241385114,0.101317532716656,-0.03370520132408686,0.07448244060380341,0.1143689313420758,0.06882005890580428,-0.1100428940419235,0.0712327199965665,-0.04406898579305636,-0.05049396904054861,0.01256287968507508,0.09970045432294189,0.07632123729711809,0.007289576115224267,0.03398141816948494,0.001181669077937417,-0.01164116769088432,-0.03447867512790706,-0.03401538968286753,0.1184447637511258,-0.01468737425728991,0.08164535066189069,-0.004025362059604728,-0.06364010757614248,0.001291919723333479,-0.06350485839945304,0.11068602560378,-0.06471176873997263,-0.1115513143601436,-0.01964183278824137,-0.09318958406078101,0.01399226948118612,0.03015964850771677,0.04377965201001721,0.09522500167254067,-0.1109667824600738,-0.01433137760305522,0.1138969655872396,-0.08637547882611066,0.00774647556803304,-0.009724665754244508,-0.02840412474135316,-0.03365867435887229,-0.0286585173357717,-0.02774772023961534,-0.08776747926977846,-0.004865668166129183,0.09535995923252835,0.08516606154755388,-0.1108110768570827,-0.008091991317784444,-0.01345501575624715,-0.04789874259867455,0.08369008387087931,-0.06443089469718122,-0.05544698643175337,-0.03249518552883757,0.09915409273681305,0.001725038294235759,-0.09410361390818044,-0.08695815014125097,0.06718696803083241,0.005040689209096144,0.01010654788958343,0.09163366512989882,0.07820770545368039,-0.1086807644103089,0.0005734784683554123,-0.002238463539186275,0.08748860276388773,-0.0158953740487509,0.1152088024918388,0.06445370961847421,-0.1087625551459204,0.09843841701679182,0.04377676885674342,0.08390031236141141,0.07415128654870667,0.03360134815943297,-0.004707870905096279,0.04416351760071016,-0.02301153206272782,0.1162791058104557,-0.08218263383699263,0.02265245463318546,-0.0687685053661764,-0.1004674831357757,0.09013530651040733,0.07164562746658024,0.05588440671668177,0.02200453968673749,-0.04094821878902954,0.03940784504327066,-0.112471891849736,0.03803585924301811,0.01314034439841977,-0.07958418546162885,0.08114854937261873,0.004048739143456423,0.03303111412277232,0.02028593062060891,-0.03185579302868005,0.07702112797455435,-0.05215863074269121,-0.08062588420034369,-0.09366443950124578,-0.1065434353302068,0.07574156829437506,-0.0726996237774661,0.01385552683149038,-0.04289789168299335,0.06567106516399465,0.03918108348769694,0.05584362155183159,-0.03607783768075946,-0.1075779053669923,-0.06039445546321896,0.01644403877859618,0.05423927345162297,0.08540424133785471,-0.1166536947368634,0.05532022142987547,0.1096437685441676,0.04716199794245113,-0.03392321853868673,0.04199405040928358,0.04924526719977659,0.07444539342240369,0.1071753786511284,0.1082422932435897,0.04500782819772342,-0.03493148554783679,-0.1009467298225316,-0.08807316811512829,0.05099133187049998,-0.07022249936758485,-0.1033396658017053,-0.1187070227793857,0.0968276539975412,0.0943687277079025,-0.08279242317338259,0.01197046319081438,-0.1115989066716118,-0.110778755771436,-0.006918974397551986,0.06187405259117079,-0.07027854292035937,0.02576493462355289,-0.07508346064986188,-0.03479811349255867,-0.006489615863396844,-0.1007111064081415,0.0558714900556152,0.06128511803960379,-0.0652138642054815,-0.03678535455415639,0.08412114286158048,0.0535813769264728,0.05317389506487658,-0.01444187093953631,-0.02664277963861179,-0.03676380845136377,-0.0130387243705674,-0.07523563290554602,-0.08751210585235095,0.05431313650443007,-0.05046706216752291,-0.1083812981498235,0.07485009069316778,-0.1163509862786189,-0.07931926304309239,0.03327092018287114,0.05230926569288055,-0.009826071240341502,0.01365278324487781,0.09015614684578979,0.02559303115521649,0.00447599225542572,0.03545037197885778,-0.00965110432321066,0.001956956368170171,-0.1043369538228682,-0.103106433601774,0.04156272143831483,-0.03180726205191699,-0.08427538203341338,0.009081001521997367,0.008725882502340881,-0.01125157406307858,-0.01602989386625572,-0.1168495179749078,-0.09494122531281847,-0.06691635002040247,0.05827767097949046,0.002504241096608503,-0.005548645436598582,0.09709064667068099,-0.07361621877866248,0.03665012730772091,0.08787824066013733,0.02276422513175541,-0.106155761594087,0.01046502947842587,0.09461657867842344,-0.06455699672986324,-0.06504335424347867,0.0657160976274658,0.1084491557076435,-0.0669042832829507,-0.04781592980920485,-0.06446155400853404,0.001454018464767989,0.07710568195885589,-0.005527391651247396,0.009390835096044159,0.1103441861155344,0.102987121134744,-0.02582855230302805,-0.02324103836420092,-0.1037507842351301,0.05195145505915191,-0.1008599267339523,0.03389107646134304,-0.03971142099254456,-0.1099919882878634,-0.09059818803619815,0.09107841567316693,0.07978095318043879,0.06773776702640125,0.06038305330864568,0.089497982767441,0.07502050788395778,0.04967437691004101,-0.1029173132743573,-0.02583628520365015,-0.1019456681954046,0.1003518948585087,0.004137884730180133,0.1184231316564878,-0.1176729546686392,-0.1060534239842233,0.05827608454557448,-0.09144530777532998,-0.0961818166353635,0.06386568528890135,-0.09021545348024781,-0.08428193441252524,-0.02745533241246731,0.09141964609197761,-0.03774203239131267,0.006091958787253993,0.07593953752159607,-0.06805369350498004,-0.06179921146104765,-0.09733360867210129,0.07745746838943199,-0.06564624182879887,-0.064010513212168,0.1050683469609794,0.0795168149537944,0.06333348429170949,0.1150775900028657,-0.08920977199739633,-0.02187007169862065,0.05076829160239713,0.03545455113731991,0.07545065874167731,-0.08256981723553494,-0.09321193452054684,-0.007326892279173547,-0.03389932115170664,-0.03437243289607246,0.0148156019639292,-0.06966309838981322,-0.04982650515075848,-0.009063197454024008,-0.01853043157900425,-0.03658338048072535,0.04039646004768188,0.01860418100605682,0.01846936548825676,0.06001883293728599,-0.1064370588881092,0.1191392325196377,0.0819093875370088,0.08723190170678322,-0.003864562956210224,-0.04195441016220344,-0.09754561430287295,0.08427646349931181,-0.08552657261240859,0.02449653344320912,0.03843871333863244,-0.04283170626246499,0.05666767383650753,0.04010535661760115,0.01662078226326211,0.09589727331614059,0.09584540424316682,-0.06538753068777745,-0.05951676476475314,-0.09653561190939156,-0.01200334635456028,-0.08651211541070086,0.01245879950607343,0.04361065039410331,0.02268385093700159,0.01997475831234169,0.09140600339874183,0.02942013646829258,-0.0956224286430044,0.02087902086863228,-0.02529728136037404,0.01168752018094582,0.06021867447533905,0.02308927437197608,0.01092690214857614,0.09077401182718145,-0.1052226045485868,0.0617522164468795,-0.1155240959785202,-0.0003393818291344969,0.09610915986984822,0.1160028043844335,-0.05773624662342517,0.007657434555084663,-0.01167938033820733,-0.05955770482623086,-0.1035541011402661,0.1022566885386102,-0.08000290528953806,0.06008602916833991,0.09500819419255394,-0.06708789917172173,-0.09160366371420002,-0.02922701869581935,-0.1142856657815354,0.03703690339192489,0.09447733544549655,-0.09277151985938191,0.1032628315010247,-0.009919583066658189,-0.05620780939334714,-0.1184682908668865,-0.03191654415756415,0.07552123017335893,0.006465079648905053,0.09319482845844354,0.04628091282220159,0.0966033692648447,0.09126986952732935,-0.06921627602658861,0.1085695800878994,0.03938780713165868,0.0574417834018886,-0.07741937487582556,-0.01690197908127064,-0.04153722938641309,0.01190131431186764,-0.07197203822003855,-0.0933970805226952,-0.101731776292849,0.05986911444275594,-0.04745789460469425,-0.02872062585037882,0.009560350489198149,0.03750282476712422,-0.08011793691443334,0.007091182045413397,0.07766911278559593,0.08825343440580496,-0.07469240461724347,0.1121786435347787,-0.08311480961157175,0.08017199030606881,-0.0325263483185335,0.03440870636292748,
0.1108493934364615,0.05952409841463965,0.01338583569017704,-0.02407767120728099,0.04856541180397764,0.09106684100916532,0.04863194144019084,-0.04054799570286516,-0.06768706864169421,0.04633840770963088,0.1107656161654534,0.004239090855897618,-0.007839853152361714,-0.02709331015089803,-0.05503827680795841,0.01434801244075243,0.07045932247358794,0.0671844633334534,0.06138628092984569,0.01240336682706375,0.0400237292422306,0.05413815278556594,-0.008543168002149784,0.04488369661486991,-0.07275012312417634,-0.09344969198952764,0.06743334775941109,-0.08875725973277739,-0.09618482906856497,-0.07345269724820472,-0.01528329119028538,0.01985215902325752,0.06361489651104907,-0.1085163732973405,-0.07196441215389549,-0.04555932409747715,0.1161111888932622,-0.04681817803578144,0.0279519109816451,-0.01316724530518573,-0.07932202402916114,-0.08580806169171469,0.0337133467064876,0.03161406292124633,0.0311250345084042,0.08130208065679237,0.08356240605875589,-0.09629221005550383,0.04274408664852197,-0.1103141195895743,0.00837560028204748,0.05333707662271941,0.0881023531091413,0.1161552088003722,-0.08015940338003777,-0.06285090804203693,-0.09872259871081754,0.04141161318243491,-0.02579902491392073,-0.02365326826974638,0.08466411424971584,-0.01088321144704367,-0.100176277949875,0.04771670068875217,-0.02670378642905483,-0.02610807866733737,0.09064764485248444,-0.03880602200605784,0.04241632479917071,-0.006103785280351465,-0.08075666538484372,0.04079363515037629,0.114954751183571,0.1099404380549379,-0.09708806522474303,0.008805585190563153,0.01947170935696521,0.06157057793237783,0.08927581047442773,-0.1071297829504239,0.03459683720847515,-0.09153280992235527,0.009672371149509973,-0.07149507509174388,-0.1020481285992447,0.04542351495849617,-0.0765292621357674,0.04142389028977442,-0.03119443441299861,0.08218486967830119,0.07084077434035074,0.1103564896721861,-0.03071338569686449,0.1193174198334081,0.001242954133773524,0.003422615889622241,-0.1037634539472888,0.05268416318676339,0.01729194851746893,0.05009276643089525,-0.06222818139999266,0.09962665263102313,-0.1021439852858859,0.01977694455833787,0.07132828220615575,-0.01003083372208695,-0.05316744052633023,-0.08641501712453015,-0.08075115275636077,-0.08233245210680179,0.04146660191385163,0.1187853880334708,0.01088538637955105,-0.03053753415938569,0.04391142985246158,0.06413778223748384,-0.1058445920245344,-0.08470572185525854,0.06156790981387689,0.09144557622529578,-0.07578655209860836,-0.04141168996821834,-0.05733734174703528,0.008949503652465468,-0.1023172181059508,-0.03456902198667347,0.09905744713940726,0.0001675822828218071,0.07706459222371151,-0.07285887412078587,0.05360364987750704,0.01164845905133147,0.004142637548850844,-0.01169441787396827,0.0297846123425399,0.07198100815393721,0.06853209083307407,-0.1114458227471406,-0.08153022317421817,0.05673124024636206,0.07251817675114916,-0.0181546130144791,0.06721579566367256,-0.01407489388713662,-0.0181276568357603,-0.07916806247290908,0.0889434370585622,0.04295707009914843,0.01506094467072469,0.08439472188852176,0.1031434155481495,-0.00103534916082601,-0.07532752943087449,0.06783501970556827,-0.03660277203663773,-0.05136943690202776,0.04763464751371238,0.0282780546656565,-0.0260787946427422,0.01469100857361455,-0.08425039889958162,0.05187629283282202,0.04361951156424401,-0.06529029321270406,0.05596172317942646,0.09548466965937571,0.1007844731316016,-0.1023448214028287,0.05239254760084572,-0.09761759834981272,0.02183249095347625,0.04497696884966004,-0.0150902484973427,0.0465924696942466,0.04696651170229965,0.09585130731299718,0.1167892760368104,-0.02468668196153649,-0.1155862327525295,-0.05119482085677886,-0.07288670137237803,-0.09376969669323759,0.06193707108049845,-0.08003955565588323,0.004199164912105202,-0.003654885202764052,0.05316930650472737,0.113084098777371,0.06819281191665133,0.06453302518439044,0.1032460194253756,-0.02938499205401301,-0.04616709342584241,-0.09327678912075986,-0.1141151529289377,-0.09741146577902468,-0.08449853736505528,-0.1076494833163951,0.03387752633631794,0.0229940822942499,-0.05281503041961946,-0.1161705068679637,0.09391949732266586,-0.05090086746105091,0.02852209281443954,0.07975509512619008,-0.05717263323696165,0.1017366605385709,0.108392520059564,0.03660877812130098,-0.01434409922919937,0.1018581305300039,0.04290852022872818,0.05407307916869217,0.02481643127406244,0.06581766482775278,0.1129583401582607,0.109172716795669,-0.00193560554109698,0.1022305730023062,0.007728283418557857,0.0295699002909548,0.03709760561487291,-0.0653530512655105,0.02558586278240116,-0.07448369316685288,0.07470941904607703,0.03241703898295836,0.1196563198324443,0.08120096476983535,-0.01088255308725919,-0.01063214008060059,0.08503902514008585,-0.04615803962047667,0.05642365480448328,0.0992129918002988,-0.03367665194482453,-0.1068581385769687,-0.02863179610943503,-0.05071416833377285,0.1108321154781501,-0.1031461005571232,-0.04817897297009627,0.02384305798748804,-0.06599994504419796,-0.07849149810209692,0.09443278361126875,-0.09835809851657168,-0.02000926718347888,0.07993669918434709,-0.03898212172738419,0.04877857205086561,0.1170591662182437,-0.04761645131986382,0.09176658596450513,-0.02971422066589745,-0.02324212847315084,-0.009518232786251093,0.1081235630652747,-0.05547570118601285,-0.01176070389308317,-0.02796315043625541,-0.006182656854739357,-0.08522350798535827,-0.00617985184005318,-0.05059704451852653,-0.09992567369724105,-0.09397706149665311,0.07765154524025017,0.07391289727171838,0.01018999764221096,0.03084421061197157,0.05367657250593083,-0.02322882752727994,-0.09329188396974153,-0.04735505805368097,0.06896660187900935,-0.01019557229962993,-0.07308689799525689,0.01413844507995446,0.02653947184509614,0.06434807171922435,-0.07193033823064561,-0.009000135197158671,-0.07235478115416302,-0.02846293846879705,0.02265343805178263,0.07863584762411593,0.05360760387667216,0.07223790528399018,-0.01698146442318563,0.106232862167159,0.0780736039500857,-0.04120628868616885,0.05949215436629288,-0.002846218906002937,-0.0558226546226338,-0.0287164111647125,0.007046081499445717,0.04915650829860674,0.03129505417590653,0.09760922743713837,-0.07106455917598775,0.06379737663088328,0.07496831650527888,-0.06281870497841581,0.03589830192939933,0.09194218697476364,0.1132816363175354,0.03902036889798499,-0.06596784388284863,-0.002508835504578352,0.1054432972646349,-0.1005286648117725,-0.08374759159217346,0.1123925189212487,0.005102204711126823,-0.08568007688129817,0.09228243794177446,-0.04360294166066096,0.07179270207261645,0.09930062725142011,-0.03826585232789899,0.05318594266023732,0.007233107617941104,0.04263670241720591,-0.04143291524026976,0.01325303199294198,0.03380726172548271,-0.077215285749291,0.09722361931394116,-0.07760651773559341,0.007066803893099882,-0.02557928213872082,0.07164269254222616,0.03357613557792294,0.07653358992701101,0.04302123739401964,-0.03313621204193049,-0.0213345875852123,0.06326416397549961,0.05324116495167777,0.05773069075586654,-0.09580822411458952,-0.06293739963230763,0.05988219735593112,0.02640755489133395,0.06027535395022757,-0.1188525440276446,-0.1143201148259144,-0.07245191415234296,-0.1016012617669223,0.08894883222535674,-0.08583712482448509,-0.08431831279915533,0.01257825483470232,-0.08385271053165887,-0.0412862881104437,0.02286071651081881,-0.08636979281858365,-0.03169630174313719,-0.02173862923003983,-0.1012370823981645,-0.0219094438957215,0.02357620886432701,-0.03315573671131777,-0.02914033353966498,0.07961088099035729,0.03566848072588297,-0.09782771932772109,0.04493416507166542,0.1082168688929776,0.05529392161283322,0.07054692577941615,-0.1147535490172372,-0.0454837510202222,-0.0970833949315258,0.06935041584180004,-0.08326665551519241,0.08806834958265314,0.1021314280276756,-0.02900791747932194,-0.03532806267399552,0.03677002973259819,-0.08082805915913205,-0.06662203569313166,-0.072662381470266,-0.06199986465498555,-0.09995964477924531,-0.04777604620981882,-0.11713481110263,0.005566395424403403,0.09402737903549044,0.03024253598793711,0.0155277212558973,0.06658805586632649,-0.04971351713810548,0.08943201977358772,0.09595883741423297,-0.05455295258689112,0.08846513111447252,
-0.05752631766656175,0.007163850023642504,-0.07750513348380404,-0.08851340106780717,-0.09333648187118911,0.08235853525925321,0.009359681891871974,-0.06242357183439946,0.09686144384459058,0.03814180951486756,0.07868286603468458,-0.09953784960718504,-0.09805353917839735,0.06527115717260351,0.0001517593215191043,0.009050016735114658,-0.06037152717243911,0.003993707158017071,0.04684885846455253,-0.06332115245736926,0.004023486272363846,-0.1047971666278778,0.05653054466984395,0.09720466846048229,-0.05617848451864771,-0.01933655925332202,-0.0362458996615031,0.0531092393797698,-0.05010618026607774,-0.09322599178014224,0.08225165758275693,-0.07375421710541805,0.04878223240884089,0.08588124098179203,0.110875740146457,0.06118521979886588,-0.05973290149180877,-0.02197206054215267,0.09958289517455252,-0.02190840631726007,0.06870019401493788,0.06864964118842753,-0.03729203053483834,0.04798811587704455,0.119585553583727,-0.01693667459355908,-0.0001178042015911734,0.02648182937871521,0.04160203382896976,0.07243394652926621,0.06168296319549457,0.03073414038075709,-0.08472805870320135,0.03163577985743932,-0.05866074520562316,0.01160856001195565,-0.07855490880025298,-0.1186865815216409,-0.04654066220747888,-0.05468369130603357,0.08400467206980602,0.06193474384220435,0.07265674681519232,-0.02615710675865034,-0.03240343086908733,-0.1164966780827518,0.1153110983762924,0.05325548606575936,0.06543783760063382,0.006819515203818433,0.09684577069310477,-0.1046248872994906,0.1185766743054235,-0.08590259048721259,-0.001444472994878238,-0.07443223975143268,0.07489389357510939,0.06961090384214774,0.09561581440194472,0.07667384571641739,0.01478105198885352,-0.004696656395862198,-0.02435672180849867,0.004281762205414902,-0.04337461343565821,-0.004873801404733757,-0.09871608760516812,0.01672139132310319,-0.05324973168766421,-0.09256249196407527,-0.02365070493639479,0.03612013050880955,-0.09745334246738567,0.03617277945758796,-0.1035293625595844,-0.01989735246875148,-0.08040468996453726,0.03765929224539613,0.04142403401485406,0.04271917001308193,-0.04697939507171828,0.05103120177403606,-0.0354142987593408,0.02576433962799399,0.1030157072548456,0.005863240848568374,0.1064995068580886,0.0528997921471657,0.1062374311853205,-0.04623558587087694,-0.08686372351071889,-0.1157725226271428,-0.1195045959559431,0.1013645161367199,0.05015834032667427,0.03969916597204406,0.04263797140144726,0.06198625453959503,-0.03924766105565144,0.09581840787712401,0.06418847754998835,0.005095898558478307,0.09105695167377242,-0.1077568056756518,-0.01118559130050721,-0.04682047073177142,0.03247510891457575,-0.1145985221173789,0.03264128580678755,0.06860668737150716,0.005047083447382611,0.02212294500167375,0.04391326963148012,0.03974602922133705,-0.0006965029479656937,0.09711170548245834,-0.009390125976524624,0.05349802634213394,0.06871830377342342,-0.01133200266821337,0.02737645285873241,0.06040161908131761,-0.03310726220710318,0.01012556143231175,0.0521408363813908,0.07730417089341446,0.02741865848424266,-0.08828108572458754,-0.07858126812194198,-0.01709021543906769,0.01302443898079436,-0.04779397637783421,0.1145601592209053,-0.0001980833555838557,0.1030706184808327,-0.01640156396205231,-0.1125867982859808,0.1113823724275377,-0.03595189219028766,0.006433766463308899,-0.06241540725273018,-0.03537657602410581,-0.1196367185226159,0.06114765117726484,-0.03578093884215862,0.05477226262840945,0.1054995731432121,-0.00420814153198952,0.07472999419308046,0.046669610604093,-0.1024980094512394,-0.05199787305671227,-0.08773184301773651,-0.004121870785346302,0.02278094959680277,-0.09324303404723588,-0.02799881871686588,-0.06696217677338434,-0.0542785308264563,-0.09955250395234527,0.1119670502730014,-0.1019838378618182,0.004567630163064051,0.01722266815250487,-0.07467216851979329,-0.01013364078413145,-0.08289480293398861,-0.1112636233192014,0.08756142934984976,0.07363724408442374,0.04343453646297216,-0.03917358176846809,0.0032493894736602,0.1124424935815067,0.04402901771985804,0.118718653128346,0.09073032881555335,-0.1019782208637892,-0.003784167323892126,-0.06698366656710447,0.07659474185376064,-0.1008423962881712,0.02801870436994444,-0.0336100292664356,0.04279844579020201,0.09872656059114118,-0.1046368865308275,-0.09264256842452635,-0.02594521357735283,-0.0329197336372505,0.07195627289079418,0.0701317475241009,-0.03523749994033887,0.1002187819265286,-0.1064678680916447,-0.109607827122957,0.1110829791777163,-0.08829556213973069,0.1190342815471911,-0.1182920308629536,0.07905802144536794,0.03557831420634289,-0.0460193857863028,0.107840974007706,-0.08858159475597518,-0.000256173042227123,0.03440490084608111,-0.05382335181166065,-0.0423389105629678,0.02085347872175813,-0.005821680822113554,0.05160708852062942,-0.09463578064053288,0.04080779089798642,-0.09766398890518056,-0.1100948236184974,0.03076145011250805,0.03397589197883255,0.1087289077940224,-0.06022290740473719,-0.1175222060996352,0.08208633037824001,-0.01659541957310595,-0.0918562743021515,0.06527165881152783,-0.02317731600788292,-0.03853639286313081,-0.01554169209888963,0.02562922963018185,0.08537046110175886,-0.08144596613946307,-0.02037189467534546,-0.0590522998050978,-0.0929096271515104,0.02459366169334573,-0.08176670952183712,0.07434682405013021,-0.03983192592468593,-0.01817663067130397,-0.1122007698299504,0.02560865413013028,-0.0962403534255339,0.01753686228525048,0.07830426490628972,-0.1115230048933259,-0.053587828107502,0.01330190120068711,0.02642135649654137,0.0656010647191814,0.03814786095283712,-0.04786159461204254,-0.02017238304253383,-0.08414879623696699,-0.004672514524214993,-0.09833173051145977,0.05288556825275365,-0.04127315238303964,-0.0225261883924571,-0.01465401581872317,-0.04007146768488913,0.1106537663302948,-0.07474057290813553,-0.08150026634533117,0.1012615914776668,0.07582896278758636,-0.04202762348695104,0.04644688135617869,-0.0146759795778051,0.08254247450248711,0.04297573359213225,-0.109958573172473,0.07753761753790503,-0.005749308043339535,-0.09664489555754023,0.1180598165447931,0.05305431705904098,0.08381650736725663,0.06649820215100255,-0.09453452440624624,-0.1148306406857503,-0.04301752198951515,-0.04637739259666843,0.0849140969921586,0.1051545677756747,0.01162338793638595,0.05608292373148016,-0.09277471618077869,0.1174403018363628,-0.07154187303824072,-0.1076243497674937,-0.09395761663117781,0.0585686261568365,-0.03528132827979644,-0.1091544547920433,0.1050819301999219,0.03284835002414088,-0.01197442612651883,0.01637743661124683,0.04418897573557448,-0.05376136560341835,0.04568032089472487,0.07733014018334378,0.04934834221793313,0.02361369507232211,-0.08935646354114464,0.07381837099567201,0.008226527066702183,-0.0234180516733497,-0.05366026091951696,0.09136243926764406,0.03233613401282961,-0.0154271557660909,0.0176826450501171,-0.0001055773574084734,0.1030212885993918,-0.07016453726315461,0.002589097946036178,-0.05127429612648157,-0.1024548201814075,-0.08316117104950752,0.02281314808311358,-0.1175107217742671,0.06092011624790783,-0.0674957693622445,0.04403192608909351,0.02136339047943081,0.01545662350718022,0.005492916461848768,0.003576755455419134,0.08726732360629635,0.07211316520424965,-0.05385767514647873,-0.0715221187399704,-0.0418071626895106,0.02568093160424592,-0.0123423268229859,-0.05636815183850452,-0.04986996989535065,0.06411360971654942,0.02828837746007318,-0.01060198551302897,0.09526053704353699,-0.07890306209636003,-0.09159189372184878,-0.07014056630566019,0.09296313741201467,0.1166968718541539,-0.1101797590655954,0.06190591962372838,-0.08361743697398299,-0.09542977274195821,0.07030959195488184,-0.0935853713549278,0.04928518398219114,-0.04453156935530377,-0.08915686122223321,-0.06344864032992839,-0.08662592636481248,0.06292756930552268,-0.06080318960162823,-0.01112808021086814,0.0205793307871274,-0.111379381888956,-0.02753928759380819,0.07804671171473238,-0.09896795889618779,0.06448901102485169,0.1075546911668604,-0.03169916479560018,-0.005632863286638798,-0.05804681904720201,-0.09953747970153591,0.1140552035671981,-0.02802711838399172,0.09038530759266866,0.07783237270057636,-0.08687618523518764,-0.06613750063569457,-0.06746219392302279,0.009250409378304125,0.07657600389971964,
0.08511082472545892,-0.05932173607252148,-0.08948417613623183,-0.05627838070653127,-0.07820629418708105,0.03481931460920107,0.08490793025966825,0.09372234133984231,0.06851279544952954,-0.08468053056206944,0.09868018753272786,-0.05506675036364461,-0.05190940108058496,-0.08716842555399548,0.07525076344194806,-0.03441613027892328,0.04270495485026568,0.01214890292421067,-0.11690997417293,-0.09135273963721025,-0.04224708648421677,-0.08353051673337855,0.08847976947414604,0.09512304112918504,0.02250866666221121,0.0759119883227114,0.03371545584925903,0.01977454237432394,0.03886734064537353,0.1078936634987395,0.08357874383205652,0.01195361904497544,0.02741117758552089,0.0511519013981607,-0.1084538331839246,0.04690981380974574,-0.006035198326915001,-0.0983608781167731,-0.03260357479138247,-0.0659766041985867,0.00828857264403926,0.111348163632285,-0.01096879850078095,0.0999735750221582,-0.01991791981466066,0.03536170224834892,0.04857118892052364,-0.01963447677414229,0.06558601991920449,0.0005946404248676485,-0.07815992484590689,-0.03816863010212213,0.06164421097517489,-0.01939539845322293,0.063590818698709,0.05532964674255886,0.05141789999972227,0.0484150960941454,0.08217697956520065,0.1047536773006962,-0.02755370556699022,0.0006242838103977244,-0.0879989183946409,0.0520622569859758,0.06178726611679794,0.02294503405239734,0.09938808681381187,0.09634771129950975,0.08673351915774513,0.01834049460446127,-0.09341819210545764,-0.05749721080933803,0.1144025020039505,0.005087532686612745,-0.06828140363098159,-0.01050121160299908,0.005426012872950081,0.0292126903913994,0.1112842548045783,0.05612453214461219,-0.1081895558286036,-0.09269024685660379,0.0597305848192948,0.1047872772878945,0.07438737856849728,0.09451228328302816,-0.01289644099632738,0.01734182429882677,0.08798722242494786,-0.08368862954393566,0.1067684676042467,-0.1038086078062951,-0.08940343571161873,-0.04985005982827852,-0.06071655998688317,-0.09030749633844871,-0.04257075539018675,0.08451702088599272,-0.06301001205031478,0.02001255100220764,-0.1193632952499947,-0.0136932623661393,-0.01352572921566579,-0.09782247116192896,0.0826982167811342,-0.02171661013296593,-0.1099669896082153,0.08658221997699175,-0.005646576727035529,0.01290505994769542,-0.07653392684350875,0.07979168855196528,0.02729372827434487,-0.04783153438135518,-0.1101523992062935,-0.1072291800678016,-0.09414999791816113,0.08211443319346418,-0.05059760565617928,0.0330509835207265,0.08089070514798927,-0.002582721086715659,-0.04834506590646559,-0.1036474212807512,-0.04909899767567445,0.1050161736886685,-0.0397821646356621,-0.06456610454860617,-0.04572310449320582,0.0714251484172142,-0.05711569043063568,0.04871592469084091,0.06469483427439357,-0.1022935773508998,0.03441816090384814,-0.009342793594506973,0.04347150779486358,0.08693912826755951,0.115326709460859,0.03436174994141197,0.06876699323697508,0.02173466665975063,0.06731633949034341,-0.1067049098539055,0.07199919488058296,0.06735835313487001,-0.04111711014719303,-0.04703227463204236,0.09689088955931305,0.01802830043929157,-0.07518170211286368,0.006149956432682208,0.1009045769536586,0.01319730955061638,0.06774922830199628,0.05154168103659273,0.1164927570360863,0.08956256317644329,0.07793720433901416,-0.06680919751087748,-0.02986001466293886,-0.09363676452293465,-0.02704221913112057,-0.02836112126063983,0.03861494082340061,-0.004729482403651966,0.04285424205024849,0.09236058370972347,-0.03234603018645302,0.06563369543012085,0.04536877168975248,0.01741849478515176,-0.1055459162414724,0.1114071468831638,-0.1000212751790465,0.0009469817270697928,0.0124776606626654,0.02049389046123767,-0.02661888819597495,-0.06663554842862621,0.08381201623276363,5.307988820991982e-05,-0.02082972182548766,-0.05455058967065461,0.03320325853491521,-0.08121036830870704,-0.07561652325102453,-0.106637849966635,0.09896752749972162,-0.1113116663947262,0.01808385278753108,-0.04692152249992322,0.02802976364084314,0.1024956922307559,-0.02647018890597093,0.1007250135936761,-0.1073405689396516,-0.1131429677858008,-0.04308908676788872,-0.08603117707100055,-0.08102375224750064,0.09224294409381831,0.04515252562768593,-0.08403762723269632,0.06060182968635203,-0.005094082394628344,0.003038224098154851,-0.02535761030675379,-0.08528946156394213,-0.02260556405511968,0.03937665614873084,-0.05709201938611946,-0.02889453301844801,0.04715171338517676,0.01883418391816422,-0.006541150447787761,-0.03686628779286824,0.02267921470275752,-0.0538983973702673,0.003335804588673066,-0.02851945008738652,0.06363733512333322,0.02732783080671447,-0.03179799666475357,-0.06308840216410982,0.09140931334513464,2.239025486128199e-07,0.09761234975864724,0.06221259178834482,0.02017246694029259,-0.1084656029277675,0.05861502205360086,0.09377868668283459,-0.02105011684775142,0.009109942588081232,0.0799654663190402,-0.04679464166681434,-0.07282604910936802,0.1184334021398116,-0.03787222271712846,-0.1061219369282953,0.01861201505961049,-0.0474242894956366,0.04737830701952142,-0.08731879136467541,0.09061372815538257,-0.001304124606467061,0.1004738509398196,0.02175078878228306,-0.06182966850072878,-0.05678563922909502,-0.1048873191877388,0.01619322229480039,0.06485203810478393,0.01801233203643834,0.04288657878165658,0.08854078285513214,-0.1184253328182001,-0.004636219735301303,0.06775082162058563,-0.01120233057600326,0.002195764857768789,0.06235318641698961,0.02393423514925358,-0.08574852766428752,0.08648444009660403,-0.02722138626863639,0.09040251664198973,0.1022066374258224,0.006305806938747605,0.02047541468630798,-0.04708170882741346,0.04790935530952967,0.1081597618528437,0.05502195477590618,0.01186392186286983,0.09405024846138571,-0.1188227179249835,-0.09770824407344275,0.01451007327841949,0.02294094454189471,-0.05832907583300088,0.08389953525967597,0.08367757033996348,-0.05470001954831273,0.00109803111711565,0.002716812961309573,-0.03885647570010922,-0.01517931016267625,0.05479583701972243,-0.0939885799521431,0.008210845625203467,-0.0731454522898663,-0.03007480489946941,0.03722251683022801,-0.02605020788971374,-0.0105243552327255,0.04036850504826409,-0.09720106782709333,-0.07958861561636899,-0.001710057630467485,-0.0669634292348886,0.00300206381654336,0.1017679967075531,0.09716920330744139,0.09414279824691907,0.03628548550630853,-0.1107877817547958,-0.1078137143929356,-0.02532330694541295,-0.05967812688517661,-0.03237205007774706,0.03687250105866813,-0.07419155877626783,0.05137050990604611,0.04236762734197932,-0.09195711832515926,0.05139272005370188,-0.09732166681138649,0.04042538821241803,0.009996738314541204,-0.09982388280663826,-0.07222999151496413,0.06417624233176181,0.05101602555630644,0.01624863365358434,-0.07631986619445952,0.08468674866307555,-0.1021995486864304,0.0840058763795451,0.01324817377609228,-0.0529927488245551,0.005021735695394935,-0.07241291009728462,-0.1190635037843022,-0.06952132301552011,-0.07510379405841171,-0.07831035237514664,-0.1059147050844791,-0.04531455680652778,0.07558725945145048,-0.010904795856365,-0.02806145814507841,-0.04427007343569209,-0.00522877004959206,0.007923454166606836,-0.008294065426533895,-0.07361959708565863,0.1078399727195317,-0.004766126093051853,0.1093139001267203,-0.09488620874234698,-0.02655749685465246,0.06577437407319364,-0.03669046102142981,0.0674650928655908,-0.1114324508443457,-0.1124461442502808,0.1111636164598342,0.110097923126247,0.04806043420677222,-0.1081141250121505,0.07321107277910002,0.1118564460175052,0.04204332816557788,-0.05499307086991592,0.1116844414499713,0.1074450325463367,0.0716659050474856,0.001608860409354734,-0.04648066510126093,-0.06552122690490331,-0.1085668955667432,0.02641163447236472,0.04997759202040905,0.04539702449404279,-0.09520866064876271,-0.1141538051623257,-0.0922011755952178,0.1075422913575672,0.1016312237476508,-0.07050895427427824,0.03507794916556728,0.09580110336980396,0.03340580835093368,-0.09807861178510989,0.08512789527984174,-0.08518593772009503,-0.08836760831527857,-0.04545538824538686,-0.1112094016384462,0.05575486046488534,0.0883063607259949,-0.091516601152751,-0.04224405629736069,-0.02840307886958326,0.0691720944377501,-0.06764009273530186,0.03536698298892954,0.064659325690123,-0.06542059572719072,
0.0894257769711867,-0.07121408602002251,-0.0162969074838413,-0.1012897062626304,0.06684605792893258,-0.002418926475298053,0.0802442166978298,0.06533721657988562,0.05342470106085445,0.0134629349789572,-0.006556080356307808,-0.03564069444790399,-0.04411648413726633,0.05384990202467363,-0.06576908382403421,-0.0833654821694375,0.09433821645399765,-0.07409488152907791,-0.008779273861543341,0.1019905450469983,-0.02656760510046732,0.01412104896658431,0.04503499293917812,0.04397835147703996,-0.1178426446573237,-0.09969389834269567,-0.1155907366361374,-0.01320368685560651,0.004878153131624485,-0.06305631318461763,-0.007996364071923501,-0.04621924084483976,-0.04590389473177953,-0.01126143058864588,-0.01036478159303192,-0.03956780055554497,0.08263877247407173,0.02288795072933431,0.05777716615175049,-0.09781685613181278,-0.009829039076833399,0.08964149563889748,0.06982284518246679,-0.07402955230395634,-0.02058688463356746,0.06404509275616241,0.0597993246933389,-0.001155671823399027,0.04721649280524481,0.09189378432510134,0.03515915611682202,0.03018255404019982,-0.02364988299040983,-0.06267015013246723,0.09539258651646637,-0.04028284028378853,-0.1176440068945616,-0.07998324641107213,0.0879215367179749,-0.01855396661557891,0.08489567385248697,-0.04907404847708888,0.01152823745311535,0.0222593962516015,-0.01466477577174095,0.1096958788985318,-0.08131116736329796,0.09857302537820456,-0.1088669753806269,-0.06370983790598372,0.03099891552248416,-0.07592155322765984,0.06576243548446786,-0.0113060174506481,0.06507507664308457,0.0869399616910686,-0.1109347374540903,0.07130290510788076,0.1032248958896607,0.01256265148322613,0.0008957685214212446,0.05095571005761529,0.0242530862950586,-0.07338085810593402,-0.06003198231052109,-0.008310677855083173,-0.0247487566659839,-0.09865758152598848,-0.1079582223011957,0.1099722237414259,0.1043105011846686,0.08157752765255305,0.009720299091934392,0.07751665440403624,-0.04931236092746148,0.05649193689115167,0.05325594617871182,-0.1000895472010158,-0.09522355663701346,0.016595934625279,0.02879436362111462,-0.07889567553634563,0.06794093220874792,0.02230314541660447,0.05285795751443836,0.01210850142489439,-0.1068549345646726,0.1128243341566929,-0.02828368965213,0.08340719989705245,-0.02266111747284114,0.1060759367505275,0.08006050378401844,-0.01669396454635337,-0.1012573033059212,0.01890727876836745,0.03163664153274573,-0.09425533301826026,-0.04211291946227126,0.1185925563255378,0.01441034489791146,0.02521813203715295,-0.1018117520023135,-0.1054711645246886,-0.07110840673660107,-0.07122633667330089,0.09979000446506525,-0.0927528277048594,0.01953984187798991,0.04356746046833809,-0.04519123408744158,-0.0963037857957724,0.06223064829750274,-0.09243572992509179,0.0546456938281458,0.01574482660349427,-0.1031890282749295,-0.01390709675687445,0.05330277667108133,-0.09775934057320962,-0.09366814500326831,0.00252968609137294,-0.01797950166511132,0.05361159700504015,-0.0473585744005099,0.02038244911553255,0.03611293985506295,-0.1051528092226254,-0.01634395444803047,-0.05887902417725987,0.03606774577794147,-0.09407275002478852,-0.04593065793231405,0.07162168424504101,0.02248291740764141,0.004729737158995814,-0.09836513543287217,0.06138727161045923,-0.01471096374965669,-0.1047301800833276,-0.01936456356126311,0.007203057624858511,-0.0550922145389439,-0.09133989042454521,0.1172470105210977,-0.0870282416224883,-0.005592457511686383,0.06499268492267596,-0.1099718749322372,0.1173072455105795,0.07569849270575399,0.002781642397531356,-0.003322762313951497,0.1107948570022061,-0.03672257349088635,-0.03580931418033155,-0.1098792173961859,0.09060710230591751,0.02074181224248717,0.07784516940604094,0.1178656468635689,-0.05741570487691912,-0.006645249419770599,-0.02218282634902095,0.01509284144789561,-0.02316342538672125,-0.03351570407471895,0.0219951118336417,0.08242109296742234,-0.1027417450266434,0.0228927739450456,-0.02993068851396528,0.05614411807003719,0.05873765959458985,0.06781431718002309,0.06953153386746114,0.06514456254969669,-0.04041265700261518,0.05859203273990579,-0.05052050823966445,-0.11134396537708,-0.09633597775790619,-0.01474549609714515,0.05751921479702105,0.07242359614523747,0.06432898810110155,0.04931771903857674,-0.006504470129437931,-0.04933481505286506,0.0124441328459495,0.09556653113083574,-0.04061134470459155,-0.04181067447959938,0.1134830611203561,0.02919042715943868,-0.0363036052501442,-0.0220374824816742,-0.082459537639924,-0.06512772605647284,0.09824494922739829,-0.007407003705131129,0.07372239529227373,-0.1091104206712701,0.1107887673540529,0.1180791908084386,0.04990463491969438,0.02694135979807932,0.1062648515594896,-0.08414936600994616,-0.03527555285006462,0.0408034852575864,-0.02548118626147793,0.1046686883681303,0.06982779690726376,0.01132676957459519,-0.08335227087530936,0.04231439071167567,0.104767652248227,-0.04697868570266252,0.04711939428778567,0.01147534617937793,0.04171896311906395,0.02611983446121754,-0.007686609876678921,-0.02126301073055467,-0.1032634345327531,-0.05855977501684337,0.01094423261917069,0.08219273488210277,-0.1100058610584902,-0.008932718139487858,0.07199359976501979,-0.1079345511588506,-0.04170032504403558,-0.008060858672451834,0.05534757548756675,0.08194884170677164,-0.08380640441361886,-0.05063259924210972,-0.1076582820261286,0.005092885920766704,-0.0449742495384793,-0.04838353392560786,0.006983954516026986,-0.04805160725043041,-0.1193855801404386,0.00924803461097562,0.03856006334004075,0.0586032901863498,-0.07177885502027552,-0.02752912564901823,0.07590520209403082,0.0003337676742676959,-0.0456438442746176,0.04446401987059093,-0.06022356834152883,0.04793003907525789,-0.0206353054864762,0.02992621052351793,0.1179143481685789,-0.003281232734502426,-0.1080749574837759,0.04311272435496633,-0.05188964974385753,-0.09423988582555069,-0.06200887370708135,-0.099117987453648,-0.08568543904705764,0.05196526436703203,0.03315223794882791,-0.03805003532433691,0.1151219061688165,0.06071095124435613,-0.1153951257211432,-0.06930186632030033,-0.1036918650700353,-0.03614203551710296,0.04185340306325583,-0.0900885321767694,-0.02287356974155554,0.05230761056152983,0.08550315737378356,0.08921219203652991,-0.02773856126171911,0.00623725745972542,0.1127765971086276,-0.05314273829118561,0.006030329891984043,-0.08770650067672851,-0.1018574442100308,0.03220718946302362,-0.07160248397856195,0.07107436200149972,0.01186465338845152,0.02057736783518604,0.08400738113732398,0.0984616889973442,0.001372638596851244,-0.03774882867287999,-0.1055026818058038,0.0709808819624817,-0.02459002629499429,-0.04079587701288158,-0.1051936921326807,-0.08556490087075652,-0.09535451339138939,-0.06186903084851896,0.02599600225971763,-0.04123169450828967,0.07815226875789547,0.1002574931095816,0.1061420167738259,-0.06207613757307655,0.04213928657427815,0.1156969336962307,0.08623057372593892,0.03641656470066329,-0.1107538136981951,-0.03219226536743425,-0.001901305755707572,0.03356273530840989,-0.1141896445893306,0.1152189222361133,-0.02377288466880717,-0.01112972882517152,0.07840050255620196,0.004272110440766627,0.0114198436181904,0.01927457380424072,0.05808665092437898,-0.1150936363593608,0.06493030710310824,-0.006362305470847304,0.09704050048180335,0.1185777576773032,0.006010293948906786,0.08855518356930081,-0.1183246905373982,-0.1072913918456561,-0.06647082124557718,-0.1109766469981656,-0.001707205542409232,-0.09828132015785446,-0.0648589749642087,-0.1060877257146329,0.06909323563761988,-0.006447599747174307,-0.05843608761042526,0.06696131836776534,-0.02086748003704697,0.07974449014894172,-0.09506689064126297,0.09311430319896888,0.0478770779568424,0.1168934927162105,0.1147832399098563,-0.0676508188686768,0.04317311325802672,-0.08618845313080033,0.08275277033298109,-0.1044427470808144,-0.1170862610616948,-0.08600527041048131,0.00116590481603171,0.09567978948076031,-0.09011643420836228,-0.07068034057005276,-0.007602463195983636,0.004999153957822994,-0.08522678733869402,-0.1010590779259986,0.002088137332282358,0.04120498648685461,0.01409596404671848,-0.008804531541159094,-0.09852126177593201,0.03734785162516688,-0.04156301488856783,0.007275730925346668,0.04359936140374712,-0.01881372205815686,
-0.1023875790429098,-0.000873722184410064,-0.1077425463629179,0.00450122609700665,-0.0792833107423767,0.04349521918757462,0.1079426790348355,-0.08255646691379766,-0.04775674371339263,0.01140186137862856,-0.1094886591695521,0.008557825553929033,0.06321301801142967,-0.05519456090826041,0.07828568561417837,2.101395548095852e-05,0.03960431166175962,0.0615427207356333,0.0868935308017611,0.0734558238777952,-0.07487899576584534,0.0952485136461553,0.1143476450223722,0.06737342344914557,0.1189788353002822,0.07501621822221086,0.09132046845679731,0.09896593833882814,-0.04876394407964714,-0.1121135687983219,-0.09528621320951887,0.02627827738367206,-0.1016970794310624,-0.09263530254777745,0.05938678444811024,-0.09448688585280661,0.02890767506863362,-0.0865924232021702,-0.03880761680497535,0.07022720313254599,0.04996396682809615,0.08292313749627567,-0.07223328093185183,0.04453466661533401,0.06578018512281975,0.08474718197649928,-0.04514863666155176,-0.02677961541332133,-0.04495217892972918,0.01664916524849927,-0.004407906218593424,-0.001833096115782917,0.1160912327321302,0.09437988180922569,-0.03778448866955696,0.09252073483970738,0.1095229261679085,-0.1019537344921912,0.1170475760358143,0.05963336882848302,-0.08886979194343793,-0.06196278722573348,0.09482454548857014,-0.1069118988533347,-0.004534771533813639,-0.043141148929843,0.02672707468637833,0.1050580514989692,0.07921973138615657,0.09752004162209346,-0.06222758032975393,0.02608296414852451,0.1183336177318446,-0.02902904119405512,0.09066300439301769,0.04389578361685664,-0.03199762781678799,-0.1098065030154208,-0.07391674218776953,-0.09632549270047462,-0.01275509801604079,0.0608356255676171,0.09309299339419932,0.01955597828749134,0.09936202549174178,-0.07859339981481525,0.1113374442520733,-0.06531109950722999,0.01082931965116921,0.1023922028081294,-0.118800107125816,0.0466435714091559,-0.01589344321709138,0.06600409787280104,0.000633474857231503,-0.04982224172115247,-0.108187696212895,0.02568117660302158,-0.08510272556392369,0.09248171296783136,-0.04191648564703558,0.09183462905810985,0.105559132519938,0.07808009325322524,0.07477837155925759,0.002457466791802226,-0.04961387583923797,0.03279943583555767,0.05625006266236837,0.00863983439758087,0.04957373256040518,-0.09208259478859146,-0.08218891468339523,-0.07029589977334288,-0.02354312258991507,0.0402859296344692,0.02870248760421384,0.07260909396210921,-0.09074014832903453,-0.03657278626813916,-0.02279593965180027,-0.05213285073145491,-0.001431816942439948,0.02313724766424605,0.1177616354305577,0.01606894334133266,0.1003627379434206,0.08179342789522451,-0.003867382532245028,-0.03547121139555694,-0.06776026658624959,-0.07767018846596382,-0.05594376517680283,0.1102724908991841,-0.06122153070645877,0.03403181748817072,0.0585299744465371,-0.0955754603246398,0.0907108742351177,0.06493986429666843,0.02452199927133261,0.09946014043942,0.08787070671628719,0.117268674327405,0.01684783615446647,-0.01402152674615352,0.003122538346687506,-0.06784613964637257,0.05237225254396322,-0.06055890815932909,0.04681201898210505,0.0718763460765082,0.1092197828344766,0.001746769824974653,-0.004935163029450629,-0.07485390163531661,0.04693146772316964,-0.04173482300297519,-0.1008167174358223,-0.02111640650244601,-0.07409517402224192,-0.04755188914858238,0.02952790667251856,-0.06283872067212951,-0.08457013493838511,0.01566102570990452,-0.06970705350800843,0.1003096414704144,0.1192934257864702,0.02781977139069566,-0.09409879231067561,0.05808920143269766,0.1020549671475377,0.03577512986541054,0.07170977994472311,-0.04300844222177537,-0.002522457584624285,0.04640903136756674,0.05017525590773506,0.00611608312826814,-0.0649885146901488,0.02696826029986144,-0.08893711729188578,0.03440277924483734,0.0659006882386807,-0.1013023745480207,-0.01230514953032988,-0.1093189940028157,-0.07687571879444922,-0.108708959275826,0.03843082624554658,-0.03749156608073376,0.03770630817189521,0.06555056864111927,0.1129336445834653,-0.1047194587494064,-0.02453836557183384,-0.04774926876238773,-0.04013405054944437,0.0923367429279624,0.003763811824322977,0.1089292359326849,-0.08073222232522129,0.07120087758701898,0.02098643019243684,0.08745603272615116,-0.0319252375416586,-0.0293298601411576,-0.03985899174543794,-0.03166570000635938,-0.1052999584640673,-0.08714291244858577,-0.113138904322201,-0.06403600591804973,0.1056279002010773,-0.08698923783242307,-0.02245226540829558,0.08818395394002104,0.1102005775730495,-0.08701039218666107,0.06606289693151038,0.1029380162951289,0.0005731317685166298,0.07579367757942551,-0.05946826324931993,-0.02852671712588672,-0.007529831136130011,0.09013544420047176,0.02058905004328601,-0.1047180523341127,-0.02718381140049393,-0.08279942121327785,0.1100255423574474,0.1077267053188437,0.09832062130630204,-0.05392214724616273,0.09471161687032342,0.01364778320099375,-0.0667073442868589,-0.0575988598699948,-0.09041507257930269,-0.1008287898450664,-0.07105049117889636,0.02674767729559421,-0.1089137036027502,-0.01541795074517024,-0.1082011376994804,-0.09135492524387169,-0.03328311167941383,-0.009430006111199304,-0.02185664828463084,0.07866204373663035,0.1100758399136895,0.06674811995391286,0.008377379035864913,-0.1058278733454302,-0.07449907415751773,0.05686841325482955,0.108426578416872,-0.03740750472556405,-0.1032020750009944,0.1104822074186433,-0.03113557482570098,-0.07954310656031724,-0.08171639923200344,-0.05537176765406704,-0.0704397624155776,0.09451401241375817,0.008866941711551252,-0.07840347775204028,0.01290985898444602,-0.03984931823125375,-0.1190381850184277,-0.08593723372694223,0.03627987683280448,-0.05717481787326675,0.01641619646841147,0.03355615685972677,0.05846117378041682,-0.04798742686960662,-0.0186940215411556,-0.1106301601020784,0.07518992830642804,0.06697004814019433,0.04680626536770208,0.09467314001501731,-0.07386565107465695,-0.07652675305603945,0.1117407240881403,0.08735094522886655,0.007269789608275262,-0.05680077476664483,-0.06911054430722194,-0.1156987106578619,0.0914648690605798,0.04501902664230645,0.03221954274051975,0.1185468446492779,-0.01944892117822059,0.06712510595443932,0.004817422667099808,-0.07978322807512615,0.02990342617835973,0.02493336272157148,-0.09058147855402326,-0.09935991703888492,0.09557239900721656,-0.07845961958023191,-0.06163248400719141,-0.01183717120826722,-0.06526444262246955,-0.05922749284119877,0.02646419787663434,-0.0404336847020051,0.0898787919297046,-0.05152863292649962,0.09497779144977553,-0.1103724132128647,-0.06899659677314067,0.08500638467792332,-0.04204894938443256,0.1101808649993705,-0.1004861849351671,-0.1047537437939631,0.01139969350560188,-0.1138984657434924,0.1034148050319019,0.1008711621970504,-0.1140120906192816,-0.1124017388900941,-0.1098201359918529,0.1171412645031065,-0.0982744207889221,-0.004258422068120271,0.08440390542890649,-0.1029772461465727,-0.04185949605510338,-0.06218595800036516,0.1162546406160989,0.05911904232793636,-0.06521493475730983,-0.07611839776199215,-0.100578962806732,0.04490391374115402,-0.06317173321495612,-0.05271502730462342,-0.1047570143216058,-0.08544884902308086,0.08116848274660476,0.1074584112287464,-0.03883014458302599,0.06369905308337093,0.09092716683902005,-0.06414723348661346,0.004315817164819755,-0.06135914507379824,0.02247846741212967,-0.02612786466680392,0.01069499627671108,0.009039636079237995,-0.05607737514306077,0.1180305060826808,0.009744488108302557,-0.02692163232100099,0.04390692466338483,0.09725223887591869,0.08449566475363063,-0.08926878239508708,0.02663521528750876,0.08423511008184448,0.01811075365600298,-0.02300007393427261,0.03215581463188333,0.01683475388906952,0.09303641940164778,-0.09193720903203295,0.0774739912097292,-0.01788037291117574,0.01467826173567829,-0.05319171239970846,0.07934680084935128,-0.002721372277310827,-0.07759398811685535,-0.001297431522649675,0.07050057830172593,-0.0950354437566593,0.04383775670219447,0.0803421922282431,0.04166217617832504,-0.04644684411789347,0.03828617694561567,-0.1054975002356797,0.07277650046789277,0.1048463697224185,0.06505261316889285,0.09484823934613085,-0.05863850900703987,0.04318535755923111,0.1091934933984612,0.01913776381881041,0.04249212911399533,
-0.03389805132507558,0.09040870095367964,-0.01338886595912474,-0.02806399675050619,-0.1019644879584331,0.0007297369649418989,-0.07244122953940778,-0.02008651419929823,0.01302816313134531,0.03229076509867357,0.06723137222641623,-0.09139574750368995,-0.04954957050110916,-0.05375754987650197,-0.08274624101959238,-0.007606274910658017,0.08003545948142315,0.07363416571224907,-0.1097874862792867,-0.01684613674465649,0.03509944415192784,0.04758785832666471,-0.06368329809634068,0.06655394227905034,0.04796755864561913,-0.05686993449815604,-0.01427926784593594,0.008434881204736233,0.02321658084558889,0.1020096021031353,-0.09171359142792126,-0.1130428185234298,0.06515189563714724,0.06183324642570351,-0.0321547098179716,0.1007009464443214,-0.0330097773476748,-0.05968375982299579,0.03283139048684544,0.07078160383467227,-0.09269259191337441,-0.07373638361144308,-0.02302382881705818,-0.01527638343511846,0.1194678827907973,-0.09418856813324747,0.01161363082360617,0.1141990935837006,0.06466214125350048,0.03533287407777089,-0.03944988626571734,-0.05011825313535259,0.09138502140570257,0.0108710632741095,0.09219947002997242,0.1094028486082138,0.05338030759921811,-0.0695173297038966,0.04022738862723302,0.03204770819238476,-0.0670521683748946,0.01510450683378442,0.09559068453723263,0.02176828965063021,-0.06141340745253542,-0.02457794468993703,0.06178741897893264,0.04662131724233462,-0.07299972092186467,0.00699834182292991,0.06297084102938155,0.07961646208759082,0.003724010343540626,-0.05639253001602929,0.1007041439753422,-0.1043018753345732,-0.001906385738813271,-0.001491150422255699,0.1001310103787307,0.02712402268081923,-0.0208422498331083,-0.03781870094839958,0.03462923008318491,0.09289929525200957,0.05361984569968725,-0.007099463414056706,0.005290975943604448,0.08039051771724046,0.1071190346563959,0.1148143639367466,0.04111567381154244,-0.1041317053214037,-0.06134286038112209,-0.1145579984551707,-0.0267050932725081,-0.1166608740331389,-0.01495877684562313,-0.04504476899849087,0.009644345340197286,-0.116967300486248,0.01705513987594601,-0.07812851653378307,-0.1042481995482122,-0.04855299602635048,0.09897088768067025,-0.08892476309102568,-0.07132283776130033,-0.005550727679164313,0.02952388278380252,0.02996927746237799,-0.05801616788171265,0.06161040642049009,-0.02973691552496351,-0.07571619719957667,-0.06385657619574846,-0.0781574951710966,0.09677992897245549,0.1189499410875726,0.06312698473209252,-0.02376108929785917,0.08996589883653178,-0.09660354672700991,-0.02863227184017443,0.08842271666012944,0.0319835630369997,0.0571108567879933,0.01274882773456704,-0.04584925555558654,0.07986036720937853,-0.0344252888386509,0.001329362403410209,0.0648223679354403,0.01837139673554672,0.1184149154038206,-0.07297108047535583,-0.01997109907110062,-0.05898687701476465,-0.0403157560064373,-0.05302592717760436,0.03429429153578942,0.02539546877790777,0.05422275953139366,-0.05813786080139759,-0.0262147917673755,-0.05140154438741946,0.01094385645729856,0.03270075088826901,-0.02432552124799033,-0.1148880644678815,0.05140278110818208,-0.08629532525756388,0.02486588602347284,0.06162040968033577,0.1025692763230767,-0.09437726311507175,-0.01371752209751746,-0.09992164464766604,0.03521997722286532,0.1092275986435863,0.002150101493314169,-0.1141385899503675,0.08719463212065254,-0.05832103839603994,0.08604958724045977,0.08323448384429646,-0.0903783602591116,-0.04275391076664749,-0.1142811628133284,0.07386827252715122,-0.004571146886602734,0.0716480954983631,-0.01710340608516553,-0.002131328824471396,-0.008043414415766711,0.07196347322892305,0.05506940237821151,0.119830637032734,-0.06434515928697813,0.02896744431293188,0.02068239819707562,-0.02681798954950894,0.06619665990617202,0.1166919256593885,-0.09666604462820272,0.08762252027876516,-0.01374520532496852,-0.07251810976042929,-0.02493076433341256,0.01546807931585317,0.01900791079555145,-0.06388742497135549,-0.06004502419844433,0.0235065038917919,0.001584753377114112,0.0005293417926025973,-0.01624644514171439,0.06072652359431202,0.04614402435467591,-0.005040193108923063,0.007322367007605135,0.007929145188682041,-0.06864942821119466,-0.07750274635639867,-0.03626012589538283,-0.08234203813446597,-0.0967109443040111,0.07396049952665856,0.1047966619963524,-0.0304756292689934,-0.03798186183831018,0.06860089751366799,-0.1172059451366628,0.06784893036107464,0.07894722248333932,-0.004722951696682992,0.0256673625107609,-0.1073849479357825,-0.01762187157420643,0.1071531320705519,0.01002124864440371,-0.01430446547204281,-0.07726257004342338,0.006637813158512196,-0.08667332187562785,-0.02037948368235624,-0.01272384742212335,-0.0385806344194607,-0.006753672930872465,-0.02710104770106757,-0.05446205123557225,0.05510076473292613,-0.02309983220312846,-0.005660397247065033,-0.0655138990160064,0.1164165279713717,-0.007784586898113455,0.07025199724557568,-0.04483690631556492,0.04950380741522997,0.0483668059415174,-0.08998008804356789,0.009229005379884941,0.0306524616704158,0.09445838768925399,-0.1043704475796429,0.0138003570554576,-0.09488729501951873,-0.07567778306120718,-0.07178838649241892,-0.03417853923205305,0.109882652864577,-0.0894828588054636,0.1116460162169602,-0.06405178831535503,0.1141128423889399,-0.07423653052898518,-0.01363738270248606,0.1031120901878186,-0.1140707508695453,-0.01006613830833676,0.04624950628063643,-0.008479523734281555,0.08475399584552465,-0.03511835865866415,0.03008185421757509,-0.04825150696093014,0.09587389893144013,0.0483110879207832,-0.1037207207616103,0.1076150422650403,-0.1137042147246074,0.09802326388912519,0.0002349425029742613,0.05857952054897211,-0.07240926917374571,0.1004387387913666,0.07873376621558523,0.07848673819725482,0.05877027975389137,0.06032511601250345,0.06616929854287551,-0.002403763855255106,0.03029718021518896,-0.06711399042591257,-0.04101604629116903,0.06081977901667326,0.04023127466151744,-0.1044044716666311,-0.03857746381303337,0.1065858944609051,-0.07639980374769505,-0.09429181001366573,-0.04925338745466656,0.10884052850355,0.045647165217272,0.0627092459036474,0.07289492134694403,-0.08559658237308534,0.002393484418155414,-0.01666748153629544,-0.1173713944440936,0.01646014045738392,-0.017194427233858,0.06405016085612777,0.01400939816295563,0.03644130400637843,0.09987554937272136,0.05999538714980807,-0.03404196715775919,0.09062894773257166,-0.07383007581905479,0.04669603469253913,0.0008778157670808889,-0.1102703000854644,0.04523101592602247,-0.009123124292411203,0.005289952655022356,0.07548238322527942,-0.01762271997196251,0.07183788207172259,-0.1015777064273558,0.1011968464198788,-0.1184608407426452,-0.09630631153503827,0.06000754398359731,0.05873549962486138,0.1011702241492925,0.03286454288646518,-0.09636920949844663,0.06460088382632553,0.1072317279088451,0.03271762781781715,0.04391493329042007,-0.006640841019387334,0.1018148877256746,0.01670977894108461,0.07035188914692028,-0.09884212751354267,-0.06501642245461464,-0.007777161521254516,-0.0243119588316198,0.09830570226477334,-0.09173707850128471,0.03933319546675568,0.1011619622026052,0.09885442947453066,0.02362548702471204,0.004233968310430519,-0.06894740812863295,-0.01038935441686231,-0.0259464296513733,0.05594734801181353,-0.01882902339132607,0.04218154700286014,-0.08839278184502904,0.0517928356737162,-0.1183336861242924,-0.02231977533541576,0.07834494000298295,0.07963140595722504,0.03754757605964143,-0.05888551598882368,0.1032583885498999,0.02949135964826782,-0.0628397919238434,-0.09283415032473225,-0.01859118274765569,0.03141211710477632,0.02489536132774148,0.1001760802870166,0.02472093609818785,-0.05724978384030152,0.0138795817097257,-0.1000240728170575,0.06571527652113929,0.0696630703317011,-0.02736914899071972,-0.03004416461420902,0.02610724069096981,0.09787152330031115,0.09251730547850121,0.03365784245133643,-0.07056509513524684,0.005480870638411017,-0.03086769538983009,-0.01741979774032407,-0.01468362972244615,0.04086216091752295,-0.08955439665724789,0.1185878851500071,-0.1105891336212407,0.1093031085791346,-0.0748368379536421,0.09243055866040983,0.04160638045098081,-0.006384133271301273,0.01549183022355297,0.07729830478871239,0.07921072512066718,-0.03733578574156445,0.04160390878610326,
